{
  "schema": "zenpicker-hybrid-v0.2",
  "input_features": [
    "aspect_min_over_max",
    "chroma_complexity",
    "colourfulness",
    "dct_compressibility_uv",
    "dct_compressibility_y",
    "edge_density",
    "flat_color_block_ratio",
    "gradient_fraction",
    "high_freq_energy_ratio",
    "laplacian_variance",
    "log_pixels",
    "luma_histogram_entropy",
    "uniformity",
    "variance",
    "cclass_illustration_or_logo",
    "cclass_illustration_or_screen",
    "cclass_photo_natural_or_detailed",
    "cclass_photo_or_illustration",
    "cclass_photo_wide_gamut",
    "target_zensim_norm"
  ],
  "feature_means": [
    0.7339134812355042,
    0.12310784310102463,
    0.0,
    0.0,
    0.0,
    0.15897025167942047,
    0.34514039754867554,
    0.0,
    0.23775352537631989,
    0.0,
    12.283058166503906,
    2.739640474319458,
    0.5096150636672974,
    3502.4169921875,
    0.14542877674102783,
    0.2970942556858063,
    0.21431608498096466,
    0.25513818860054016,
    0.08802267909049988,
    -0.0001417434395989403
  ],
  "feature_stds": [
    0.18624959886074066,
    0.1124325692653656,
    9.999999974752427e-07,
    9.999999974752427e-07,
    9.999999974752427e-07,
    0.12673653662204742,
    0.315879225730896,
    9.999999974752427e-07,
    0.20979754626750946,
    9.999999974752427e-07,
    1.3927044868469238,
    1.3410885334014893,
    0.25533410906791687,
    2582.046142578125,
    0.35255759954452515,
    0.45701080560684204,
    0.4103761315345764,
    0.4359697699546814,
    0.2833479642868042,
    0.6454789042472839
  ],
  "categorical_axes": {
    "subsampling": [
      "444",
      "422",
      "420"
    ],
    "progressive_mode": [
      "baseline",
      "progressive_search"
    ]
  },
  "boolean_axes": [
    "aq_enabled",
    "auto_optimize"
  ],
  "scalar_axes": {
    "chroma_distance_scale": {
      "min": 0.1,
      "max": 5.0,
      "log_space": true
    },
    "q": {
      "min": 5.0,
      "max": 95.0,
      "log_space": true
    }
  },
  "activation": "leakyrelu",
  "alpha": 0.1,
  "layers": [
    {
      "weight": [
        [
          0.04376146197319031,
          -0.501272976398468,
          0.07118880748748779,
          0.07015062868595123,
          -0.11949127912521362,
          0.03906098008155823,
          -0.10019030421972275,
          0.05800917372107506,
          -0.10382413119077682,
          0.15706631541252136,
          0.1813569813966751,
          0.0011866951826959848,
          -0.0739673376083374,
          -0.2268243283033371,
          0.04816834256052971,
          -0.1912756860256195,
          0.18488872051239014,
          -0.26733121275901794,
          0.2647637724876404,
          -0.2675536274909973
        ],
        [
          -0.02115439437329769,
          -0.11363838613033295,
          0.11499947309494019,
          0.08712562918663025,
          0.009358599781990051,
          -0.2546064257621765,
          0.282119482755661,
          0.057496096938848495,
          0.08232202380895615,
          -0.17294736206531525,
          0.07870764285326004,
          0.23765194416046143,
          0.38269346952438354,
          -0.160143181681633,
          0.2864506244659424,
          0.38685035705566406,
          -0.2398875653743744,
          -0.3025621175765991,
          -0.28758731484413147,
          -0.15967118740081787
        ],
        [
          0.07483866065740585,
          -0.34898898005485535,
          -0.11931734532117844,
          0.1928998827934265,
          0.2045830488204956,
          -0.2283707857131958,
          0.07917194068431854,
          -0.02885889820754528,
          0.5999530553817749,
          -0.20876511931419373,
          -0.3220638036727905,
          0.2738419771194458,
          0.056705038994550705,
          -0.03500586748123169,
          -0.05394727364182472,
          0.19732825458049774,
          -0.14425529539585114,
          -0.051313504576683044,
          -0.08206024765968323,
          0.10415007174015045
        ],
        [
          -0.011386769823729992,
          0.03450953960418701,
          0.06084084138274193,
          -0.17523404955863953,
          -0.07579866796731949,
          0.12387587875127792,
          -0.1364782601594925,
          -0.09763965755701065,
          0.03809411823749542,
          0.12866637110710144,
          -0.001577038667164743,
          -0.006623535882681608,
          0.12841728329658508,
          -0.08153033256530762,
          -0.16738426685333252,
          0.23686163127422333,
          0.12080234289169312,
          -0.016067473217844963,
          0.12742862105369568,
          0.0445873998105526
        ],
        [
          0.33180803060531616,
          -0.381778746843338,
          -0.0614984966814518,
          -0.038647912442684174,
          -0.09199103713035583,
          0.032033614814281464,
          0.13519325852394104,
          0.12267033010721207,
          -0.11596520990133286,
          0.1947692483663559,
          -0.3393329083919525,
          -0.24929510056972504,
          0.1430811733007431,
          -0.044745542109012604,
          -0.37325331568717957,
          -0.13906316459178925,
          -0.09341814368963242,
          0.2333282083272934,
          -0.041167840361595154,
          0.1086726114153862
        ],
        [
          -0.2290545552968979,
          -0.14881816506385803,
          -0.14660920202732086,
          0.023917516693472862,
          -0.044155411422252655,
          -0.015170461498200893,
          0.15445594489574432,
          -0.07209713757038116,
          -0.09413110464811325,
          0.10327126830816269,
          -0.1416434645652771,
          0.21660560369491577,
          0.11575216054916382,
          0.07883879542350769,
          0.11508561670780182,
          -0.3617632985115051,
          -0.0963570699095726,
          0.08987106382846832,
          -0.1802876591682434,
          0.08451256155967712
        ],
        [
          -0.024226665496826172,
          -0.06836286932229996,
          0.14574189484119415,
          -0.12439275532960892,
          0.045135606080293655,
          -0.14523792266845703,
          -0.21075429022312164,
          -0.1455754190683365,
          0.07629494369029999,
          0.08847004175186157,
          -0.2900838553905487,
          -0.1263178139925003,
          -0.18740162253379822,
          0.0448620542883873,
          0.19782380759716034,
          -0.043670494109392166,
          -0.304231196641922,
          0.31440427899360657,
          0.24326395988464355,
          -0.0173078291118145
        ],
        [
          -0.20824898779392242,
          0.016517430543899536,
          0.028761284425854683,
          -0.07389180362224579,
          -0.20755469799041748,
          -0.06440115720033646,
          0.11077123135328293,
          -0.011992905288934708,
          0.13857904076576233,
          0.007651416584849358,
          -0.08802399784326553,
          -0.2776823341846466,
          -0.32715433835983276,
          0.09327035397291183,
          0.18393777310848236,
          0.21131375432014465,
          -0.28975215554237366,
          0.22312496602535248,
          -0.10524488985538483,
          -0.09443879127502441
        ],
        [
          -0.08357913792133331,
          -0.22141724824905396,
          -0.12749558687210083,
          -0.20730353891849518,
          0.09787297248840332,
          -0.2833634316921234,
          0.057386767119169235,
          -0.11871007084846497,
          0.19703176617622375,
          0.0431678406894207,
          0.0851033627986908,
          -0.15149036049842834,
          0.24863897264003754,
          0.22760780155658722,
          -0.29975196719169617,
          0.10846900194883347,
          -0.13789860904216766,
          -0.04496096447110176,
          0.24867574870586395,
          -0.10278459638357162
        ],
        [
          0.07052487879991531,
          -0.0636635273694992,
          -0.0391215905547142,
          0.06983713060617447,
          -0.0411875918507576,
          -0.1057283952832222,
          -0.13458652794361115,
          0.13026581704616547,
          -0.2950363755226135,
          0.07655110955238342,
          0.22426961362361908,
          0.3249761462211609,
          0.17605789005756378,
          -0.1786828488111496,
          0.2932123839855194,
          -0.02204735577106476,
          0.1191268190741539,
          -0.16724009811878204,
          -0.0488579124212265,
          -0.41742175817489624
        ],
        [
          -0.005816152319312096,
          0.10194379836320877,
          -0.04020689055323601,
          -0.17782852053642273,
          -0.18584385514259338,
          -0.023583168163895607,
          0.11179458349943161,
          0.02493460476398468,
          0.08006301522254944,
          0.1684018075466156,
          -0.08305201679468155,
          -0.012591305188834667,
          -0.010791158303618431,
          0.25950461626052856,
          0.13803885877132416,
          -0.256898432970047,
          0.1860012263059616,
          0.23032037913799286,
          0.0617281049489975,
          0.057533323764801025
        ],
        [
          0.03733404353260994,
          0.3366122543811798,
          -0.13061754405498505,
          0.003199199214577675,
          0.048820532858371735,
          0.08215658366680145,
          -0.10719823837280273,
          -0.07420895248651505,
          -0.39347782731056213,
          -0.13388995826244354,
          -0.2241690307855606,
          -0.14589270949363708,
          0.21588636934757233,
          0.3689612150192261,
          0.2591856122016907,
          0.022985009476542473,
          0.05688854679465294,
          -0.10148543119430542,
          0.46497347950935364,
          0.19558082520961761
        ],
        [
          0.024375498294830322,
          -0.13306687772274017,
          -0.14986994862556458,
          -0.17230910062789917,
          -0.04557415097951889,
          0.11938264966011047,
          -0.08437363058328629,
          -0.2029685527086258,
          -0.06195487827062607,
          0.20258468389511108,
          0.20883819460868835,
          -0.08170703798532486,
          -0.027042893692851067,
          0.3305405080318451,
          -0.3147750198841095,
          0.3608053922653198,
          0.10355376452207565,
          0.05997380614280701,
          -0.25753241777420044,
          0.020381135866045952
        ],
        [
          -0.030371548607945442,
          0.14766035974025726,
          -0.028868013992905617,
          -0.21318526566028595,
          0.11210426688194275,
          0.03401217237114906,
          0.01764141023159027,
          -0.14908674359321594,
          0.008269615471363068,
          0.20258094370365143,
          -0.1925114393234253,
          -0.08042798191308975,
          -0.027339788153767586,
          0.15789608657360077,
          -0.1711166948080063,
          0.053025323897600174,
          -0.1670801043510437,
          -0.22386233508586884,
          0.26820120215415955,
          0.27477753162384033
        ],
        [
          0.06959100812673569,
          0.032141171395778656,
          -0.1486886590719223,
          -0.0008877711952663958,
          -0.1809203028678894,
          0.05962711572647095,
          -0.1316269040107727,
          -0.2153361439704895,
          0.18292534351348877,
          -0.09893537312746048,
          -0.026496319100260735,
          -0.25297418236732483,
          -0.15465936064720154,
          -0.07572152465581894,
          0.004655797965824604,
          0.4330778419971466,
          -0.3059975802898407,
          0.4415954649448395,
          -0.3743267357349396,
          0.07721991837024689
        ],
        [
          0.24248972535133362,
          0.20703643560409546,
          -0.07678352296352386,
          0.16538099944591522,
          -0.06521228700876236,
          -0.2609855532646179,
          0.029404059052467346,
          -0.18233896791934967,
          -0.11497145146131516,
          -0.1818781942129135,
          0.1180720329284668,
          -0.23833608627319336,
          -0.00552581949159503,
          0.05430521443486214,
          0.20401431620121002,
          0.17368440330028534,
          -0.25668618083000183,
          0.405209481716156,
          0.03815416991710663,
          -0.24515600502490997
        ],
        [
          0.06123584881424904,
          -0.11323932558298111,
          0.06435185670852661,
          -0.19791977107524872,
          -0.12836380302906036,
          -0.15770690143108368,
          -0.06694482266902924,
          -0.00813295692205429,
          -0.11060334742069244,
          -0.13206852972507477,
          -0.03511974960565567,
          0.18318574130535126,
          -0.2127811312675476,
          -0.2791002690792084,
          -0.028173115104436874,
          0.39378809928894043,
          -0.3857092559337616,
          -0.021506579592823982,
          -0.05395570024847984,
          -0.05865008011460304
        ],
        [
          0.14266949892044067,
          0.11092818528413773,
          0.17076590657234192,
          -0.09116370975971222,
          -0.15978917479515076,
          -0.020581748336553574,
          0.1260225474834442,
          0.10937003046274185,
          0.0074842157773673534,
          0.1755056381225586,
          -0.10472646355628967,
          0.038291409611701965,
          -0.03353198990225792,
          0.028935715556144714,
          -0.43205526471138,
          0.055690281093120575,
          -0.1535315364599228,
          0.19609922170639038,
          0.013169114477932453,
          0.11772184818983078
        ],
        [
          0.05997808650135994,
          -0.04879489168524742,
          -0.15058091282844543,
          0.0012437821133062243,
          0.0869893953204155,
          -0.037066325545310974,
          -0.319564551115036,
          0.1330520510673523,
          0.1137189194560051,
          -0.15636886656284332,
          0.09060746431350708,
          0.08415785431861877,
          0.23795603215694427,
          -0.08682279288768768,
          0.3401772975921631,
          -0.24374620616436005,
          -0.4273262321949005,
          0.42818084359169006,
          0.3441094756126404,
          0.15974512696266174
        ],
        [
          -0.13425444066524506,
          0.08690857142210007,
          0.03952476382255554,
          0.11254746466875076,
          0.02852700464427471,
          0.12390025705099106,
          -0.21272969245910645,
          0.12680193781852722,
          0.03713440150022507,
          0.12734122574329376,
          -0.10438735783100128,
          -0.16353043913841248,
          -0.15385597944259644,
          -0.10551512241363525,
          0.32868629693984985,
          0.013216907158493996,
          0.0396365225315094,
          -0.26632243394851685,
          -0.12915942072868347,
          0.34694457054138184
        ],
        [
          -0.032810088247060776,
          0.05504215881228447,
          0.12802289426326752,
          -0.21774792671203613,
          0.07818720489740372,
          0.227764293551445,
          -0.08571334928274155,
          0.03632604330778122,
          0.025423506274819374,
          0.11817193776369095,
          0.1103425920009613,
          -0.17662423849105835,
          -0.14516623318195343,
          0.20156578719615936,
          -0.028482478111982346,
          0.04535331577062607,
          -0.13423174619674683,
          -0.4079276919364929,
          0.11372406035661697,
          -0.01439003087580204
        ],
        [
          -0.39452284574508667,
          -0.5812565684318542,
          0.03494933992624283,
          0.08144046366214752,
          0.09127601236104965,
          -0.033611126244068146,
          0.059386640787124634,
          0.2088513970375061,
          -0.1736661195755005,
          0.2072279155254364,
          -0.07253170013427734,
          -0.27251169085502625,
          0.0700213834643364,
          -0.023333178833127022,
          0.03884337097406387,
          -0.010970192030072212,
          0.3158763349056244,
          0.008981498889625072,
          -0.2781181037425995,
          0.1417447179555893
        ],
        [
          0.17438830435276031,
          -0.1070232093334198,
          -0.18923871219158173,
          -0.1361829936504364,
          0.039604999125003815,
          0.2571682929992676,
          0.020884495228528976,
          -0.18022127449512482,
          -0.17973656952381134,
          0.11346126347780228,
          -0.2406017780303955,
          0.06635547429323196,
          0.15765848755836487,
          0.07988990098237991,
          0.2225520759820938,
          0.42182475328445435,
          -0.20638127624988556,
          -0.23777246475219727,
          -0.25065580010414124,
          0.24099986255168915
        ],
        [
          -0.15017908811569214,
          -0.04698944091796875,
          0.2046947181224823,
          0.04863583296537399,
          -0.19329425692558289,
          0.009842035360634327,
          -0.06736555695533752,
          0.06853482872247696,
          -0.16992102563381195,
          0.12450788170099258,
          0.15043677389621735,
          -0.22682689130306244,
          -0.21234674751758575,
          0.0057019819505512714,
          -0.15046454966068268,
          -0.2801690399646759,
          0.312663733959198,
          0.20636674761772156,
          -0.27222540974617004,
          0.04436122253537178
        ],
        [
          -0.10002868622541428,
          0.14638911187648773,
          0.15245115756988525,
          -0.21429543197155,
          -0.027548864483833313,
          -0.022366441786289215,
          0.2084898054599762,
          0.09779071807861328,
          0.08237934857606888,
          -0.2074347734451294,
          -0.12797415256500244,
          0.48150911927223206,
          0.04721890762448311,
          -0.13353237509727478,
          -0.3131953775882721,
          0.35423973202705383,
          0.25032028555870056,
          -0.29643958806991577,
          -0.2769636809825897,
          -0.005650442559272051
        ],
        [
          -0.039636485278606415,
          -0.38850119709968567,
          0.0701601505279541,
          -0.05794621258974075,
          0.07749459892511368,
          0.21502484381198883,
          0.12104843556880951,
          0.13282793760299683,
          0.004465896170586348,
          -0.18016871809959412,
          0.30645498633384705,
          -0.3100702464580536,
          0.11565334349870682,
          -0.11330220848321915,
          0.35924032330513,
          0.1253664344549179,
          0.026446443051099777,
          -0.4404603838920593,
          -0.19548898935317993,
          -0.04844178631901741
        ],
        [
          -0.3996919095516205,
          0.09701509773731232,
          0.054907672107219696,
          -0.028059273958206177,
          -0.01518221478909254,
          0.0806593969464302,
          0.19639135897159576,
          -0.027682438492774963,
          0.10204379260540009,
          0.15427690744400024,
          -0.023809242993593216,
          0.1418827623128891,
          -0.0025951978750526905,
          -0.17219170928001404,
          0.0673898383975029,
          0.49010637402534485,
          -0.20914708077907562,
          -0.30232247710227966,
          0.0883478969335556,
          -0.05358867347240448
        ],
        [
          -0.12749548256397247,
          -0.13070107996463776,
          -0.11609317362308502,
          0.2078864574432373,
          0.1108890250325203,
          0.05673038214445114,
          0.27785781025886536,
          0.19150236248970032,
          0.21391771733760834,
          -0.019922317937016487,
          -0.028093131259083748,
          -0.1450434774160385,
          -0.15524518489837646,
          0.07513643801212311,
          -0.18845784664154053,
          0.28685522079467773,
          -0.16405819356441498,
          0.11440248787403107,
          -0.28156930208206177,
          -0.00945938192307949
        ],
        [
          0.0809071883559227,
          0.08641433715820312,
          -0.17135101556777954,
          -0.05945901945233345,
          0.10399548709392548,
          -0.12673427164554596,
          -0.24776491522789001,
          -0.0025713173672556877,
          -0.044450316578149796,
          0.05321778729557991,
          0.14317312836647034,
          -0.015094215981662273,
          -0.11691544950008392,
          -0.014251488260924816,
          -0.36408135294914246,
          0.23254655301570892,
          0.14538854360580444,
          0.22781620919704437,
          -0.34108713269233704,
          0.03031296841800213
        ],
        [
          -0.18608494102954865,
          0.09020990133285522,
          -0.10409373790025711,
          0.04920760542154312,
          0.002451871754601598,
          -0.3218194842338562,
          -0.320787250995636,
          -0.05273568630218506,
          0.3001706898212433,
          -0.05114477872848511,
          0.2627123296260834,
          -0.19556182622909546,
          0.001966147217899561,
          0.19144485890865326,
          -0.04643872007727623,
          0.2617564797401428,
          0.3010266125202179,
          -0.2986692488193512,
          -0.1985386162996292,
          0.14606870710849762
        ],
        [
          -0.12212875485420227,
          0.4185717701911926,
          -0.11337028443813324,
          0.14218951761722565,
          -0.0248872097581625,
          -0.04058944061398506,
          0.09804769605398178,
          -0.1583881974220276,
          3.918763832189143e-05,
          0.17330236732959747,
          0.1400376707315445,
          0.13673284649848938,
          0.26482704281806946,
          0.21780405938625336,
          -0.2383079081773758,
          0.053852375596761703,
          0.21170535683631897,
          -0.1524609625339508,
          -0.31803447008132935,
          -0.05210333317518234
        ],
        [
          -0.4225095808506012,
          -0.013050192967057228,
          0.05658523738384247,
          -0.1881369948387146,
          -0.00941311102360487,
          0.30848145484924316,
          -0.29694390296936035,
          -0.14158782362937927,
          0.13815006613731384,
          -0.15793456137180328,
          -0.3615572154521942,
          0.17369285225868225,
          -0.10023409873247147,
          0.03618685528635979,
          0.007512793876230717,
          0.17229899764060974,
          -0.04387866333127022,
          0.28800374269485474,
          -0.32088473439216614,
          -0.2190660834312439
        ],
        [
          0.07059137523174286,
          0.20902448892593384,
          -0.16310296952724457,
          -0.022266658022999763,
          0.13198046386241913,
          -0.3340301215648651,
          -0.12600955367088318,
          0.13693392276763916,
          -0.22066104412078857,
          0.08504725992679596,
          -0.5963249802589417,
          -0.1551935374736786,
          0.02554169110953808,
          -0.5448246598243713,
          -0.12435402721166611,
          0.1309168040752411,
          -0.138899564743042,
          -0.05401674285531044,
          0.28464117646217346,
          -0.384282648563385
        ],
        [
          -0.034079715609550476,
          -0.2633982002735138,
          -0.12448711693286896,
          0.01813807152211666,
          0.22021235525608063,
          -0.10759247094392776,
          -0.21797530353069305,
          0.048204272985458374,
          -0.06030181050300598,
          -0.14936380088329315,
          0.06500349193811417,
          0.1405482441186905,
          -0.06238477677106857,
          -0.18159043788909912,
          0.028950490057468414,
          0.0213845893740654,
          0.06099490821361542,
          -0.24755319952964783,
          0.19217677414417267,
          0.18312150239944458
        ],
        [
          0.01439611241221428,
          0.05888568237423897,
          -0.010834249667823315,
          0.01791917160153389,
          -0.08890959620475769,
          0.00875913631170988,
          0.0010512584121897817,
          0.01784205622971058,
          -0.11442337185144424,
          -0.1599665731191635,
          0.06450953334569931,
          0.1457907110452652,
          0.25759419798851013,
          0.0342051163315773,
          0.3827161490917206,
          -0.14595681428909302,
          0.27191630005836487,
          -0.24523180723190308,
          0.22672055661678314,
          0.016555769369006157
        ],
        [
          0.05591423809528351,
          0.015256852842867374,
          -0.11749748885631561,
          -0.15906891226768494,
          -0.1287572979927063,
          0.03799295425415039,
          0.1929028034210205,
          -0.08143550902605057,
          -0.08834044635295868,
          -0.19470034539699554,
          0.17139700055122375,
          0.057810910046100616,
          -0.18733276426792145,
          -0.012831713072955608,
          0.255171000957489,
          -0.3291076123714447,
          0.2210482954978943,
          0.14125864207744598,
          -0.25804322957992554,
          0.16397984325885773
        ],
        [
          -0.02403617464005947,
          0.11129731684923172,
          0.18529759347438812,
          0.07683376967906952,
          0.14563873410224915,
          -0.0004015773884020746,
          0.22329753637313843,
          0.04987005889415741,
          0.015650389716029167,
          -0.09433084726333618,
          0.05301501974463463,
          0.208576962351799,
          -0.00412761140614748,
          0.024351423606276512,
          0.20094163715839386,
          0.04229549691081047,
          -0.2812938988208771,
          0.3242259919643402,
          -0.2157209813594818,
          -0.08276538550853729
        ],
        [
          -0.012527146376669407,
          -0.05390261858701706,
          0.1511223018169403,
          0.047127824276685715,
          -0.09711258858442307,
          0.12694133818149567,
          -0.2684372365474701,
          0.18794262409210205,
          0.07821755856275558,
          0.16021054983139038,
          -0.1836472749710083,
          -0.20938758552074432,
          -0.1820613592863083,
          -0.24849478900432587,
          0.18449021875858307,
          0.5974375605583191,
          0.23282697796821594,
          -0.3246665298938751,
          -0.35291025042533875,
          -0.20954960584640503
        ],
        [
          0.23309670388698578,
          -0.6879734396934509,
          -0.21862922608852386,
          0.09285871684551239,
          0.02116275578737259,
          0.03169028460979462,
          -0.256133109331131,
          -0.21495163440704346,
          0.012847241945564747,
          -0.10925479978322983,
          0.12989524006843567,
          0.19555550813674927,
          -0.1937861293554306,
          0.14472316205501556,
          -0.21632574498653412,
          0.24165265262126923,
          0.010778047144412994,
          0.22391797602176666,
          -0.3999977707862854,
          -0.08357314020395279
        ],
        [
          -0.27111944556236267,
          -0.03327777236700058,
          -0.21627222001552582,
          0.14806754887104034,
          0.00020705710630863905,
          -0.38688966631889343,
          -0.29013386368751526,
          -0.026510853320360184,
          -0.0829271748661995,
          -0.09846001863479614,
          0.08573704212903976,
          0.3651757836341858,
          0.02045210637152195,
          -0.24809201061725616,
          0.23409293591976166,
          -0.09842277318239212,
          0.2904341518878937,
          0.0999622568488121,
          -0.16271188855171204,
          0.27573323249816895
        ],
        [
          0.05344370752573013,
          0.20927971601486206,
          -0.21281595528125763,
          -0.01447953563183546,
          -0.20763897895812988,
          -0.05373971536755562,
          -0.1453772783279419,
          -0.13804614543914795,
          -0.06801921129226685,
          0.17256847023963928,
          0.313146710395813,
          0.10048328340053558,
          -0.01020035706460476,
          0.01792890392243862,
          0.172272190451622,
          -0.389230877161026,
          0.05564812943339348,
          0.26974058151245117,
          0.060305312275886536,
          0.015168415382504463
        ],
        [
          0.22179609537124634,
          0.13966874778270721,
          -0.03911079466342926,
          0.18198896944522858,
          -0.0831582322716713,
          0.02174033224582672,
          0.12890306115150452,
          -0.12492214888334274,
          0.050808075815439224,
          -0.10761617124080658,
          -0.21343746781349182,
          0.2086775153875351,
          0.1888047456741333,
          0.05805136635899544,
          0.22688241302967072,
          0.14060834050178528,
          -0.22207260131835938,
          -0.2671281695365906,
          0.09473046660423279,
          -0.2683790326118469
        ],
        [
          -0.06001773476600647,
          0.2380368858575821,
          0.16680480539798737,
          0.1592094898223877,
          -0.09323922544717789,
          0.08913542330265045,
          0.020076245069503784,
          -0.01269603706896305,
          -0.18853028118610382,
          0.0634690374135971,
          0.13259096443653107,
          -0.19788415729999542,
          -0.06001702696084976,
          0.11951250582933426,
          -0.006018273066729307,
          0.21236559748649597,
          0.020961858332157135,
          -0.24235984683036804,
          -0.25354811549186707,
          -0.2061070054769516
        ],
        [
          -0.11834456026554108,
          0.09021991491317749,
          0.023153342306613922,
          0.01879098266363144,
          0.1800849884748459,
          0.03619620203971863,
          -0.1257762908935547,
          -0.07497081160545349,
          0.005408567376434803,
          -0.08967588096857071,
          -0.06467769294977188,
          0.11668238043785095,
          0.03003614768385887,
          -0.24832573533058167,
          -0.40202561020851135,
          -0.14243796467781067,
          0.10882914066314697,
          -0.16777893900871277,
          -0.256645530462265,
          0.1435747891664505
        ],
        [
          0.18391050398349762,
          0.1414533406496048,
          -0.11119202524423599,
          -0.05277265980839729,
          -0.1111048012971878,
          -0.020343979820609093,
          -0.20539644360542297,
          -0.10151144117116928,
          0.07916034013032913,
          0.01023203693330288,
          -0.12359612435102463,
          -0.00793389230966568,
          0.003031669883057475,
          -0.34947940707206726,
          0.26212984323501587,
          -0.35040274262428284,
          0.13285082578659058,
          0.34264305233955383,
          -0.1275145560503006,
          -0.12521004676818848
        ],
        [
          0.09680206328630447,
          0.21922774612903595,
          -0.03900561109185219,
          -0.07940229028463364,
          -0.11951334774494171,
          0.24862059950828552,
          0.0436762273311615,
          0.08091214299201965,
          0.10161330550909042,
          0.17252035439014435,
          0.12259253114461899,
          0.0381058044731617,
          -0.14488817751407623,
          -0.11152993142604828,
          -0.3555383086204529,
          -0.262856125831604,
          -0.12600940465927124,
          0.29992830753326416,
          0.0072551751509308815,
          -0.02243644930422306
        ],
        [
          -0.06726840138435364,
          0.09319352358579636,
          0.2163723111152649,
          0.22307349741458893,
          -0.0929330587387085,
          -0.09338930994272232,
          0.2948971092700958,
          0.11350799351930618,
          -0.08351652324199677,
          0.05855010449886322,
          0.1932535320520401,
          -0.23092420399188995,
          -0.3386226296424866,
          -0.011102277785539627,
          0.40827226638793945,
          -0.40412938594818115,
          0.2844654321670532,
          -0.041691701859235764,
          -0.2913724184036255,
          -0.10444798320531845
        ],
        [
          0.2265678346157074,
          0.32119739055633545,
          0.18289706110954285,
          0.21461379528045654,
          -0.007487322203814983,
          -0.09041459858417511,
          -0.14949890971183777,
          -0.09303531050682068,
          0.2638581693172455,
          -0.029124019667506218,
          -0.02912982925772667,
          0.34602925181388855,
          0.30674394965171814,
          0.22510306537151337,
          0.07899599522352219,
          -0.39848852157592773,
          0.44849005341529846,
          0.06940292567014694,
          0.21574074029922485,
          0.024984313175082207
        ],
        [
          0.11235946416854858,
          -0.19594243168830872,
          0.15717995166778564,
          0.05279811471700668,
          -0.09433681517839432,
          -0.008337059989571571,
          0.26483646035194397,
          -0.15075793862342834,
          0.07240253686904907,
          0.18441013991832733,
          0.40878722071647644,
          0.0342596173286438,
          0.04024617001414299,
          0.310806542634964,
          0.022541528567671776,
          -0.27818870544433594,
          0.06274550408124924,
          0.27778559923171997,
          -0.2542927861213684,
          0.38807788491249084
        ],
        [
          -0.08115386217832565,
          0.1986236423254013,
          0.2033374160528183,
          -0.041797589510679245,
          -0.18306364119052887,
          0.015841467306017876,
          0.3903038203716278,
          -0.1357124000787735,
          0.08696384727954865,
          0.1444237232208252,
          -0.06667574495077133,
          0.1365528404712677,
          0.018249548971652985,
          0.10619090497493744,
          0.16803529858589172,
          -0.2998979091644287,
          -0.17304198443889618,
          0.0773751512169838,
          -0.15432950854301453,
          0.2324831783771515
        ],
        [
          0.26420357823371887,
          0.08027447760105133,
          -0.10504898428916931,
          -0.04224564880132675,
          0.020955052226781845,
          0.08080320805311203,
          -0.1885288804769516,
          -0.05372332036495209,
          -0.1282675564289093,
          0.08327506482601166,
          -0.19162164628505707,
          -0.1877651959657669,
          -0.09484726190567017,
          -0.14613056182861328,
          -0.12474198639392853,
          0.1699732393026352,
          -0.452485054731369,
          -0.1313597410917282,
          0.2780514657497406,
          -0.12731246650218964
        ],
        [
          -0.19828729331493378,
          -0.05509291961789131,
          -0.14333970844745636,
          0.17693667113780975,
          -0.0717916265130043,
          -0.05726916342973709,
          0.1013626903295517,
          0.1947171539068222,
          0.2153995931148529,
          0.020908642560243607,
          -0.009671501815319061,
          0.28625455498695374,
          0.19277508556842804,
          -0.0033694119192659855,
          -0.374057799577713,
          -0.11805769801139832,
          -0.09521269053220749,
          0.022747348994016647,
          0.23847734928131104,
          -0.12699629366397858
        ],
        [
          0.11658725142478943,
          -0.3872848451137543,
          0.0851445272564888,
          -0.11383233964443207,
          -0.002646860433742404,
          -0.022980384528636932,
          -0.27176064252853394,
          -0.1865222454071045,
          -0.0616358183324337,
          0.21651095151901245,
          -0.07953352481126785,
          -0.30858439207077026,
          0.03502172231674194,
          -0.3941554129123688,
          -0.3153228759765625,
          -0.0613207183778286,
          -0.2030394971370697,
          0.21979515254497528,
          0.1992967277765274,
          0.06481525301933289
        ],
        [
          -0.04152708873152733,
          0.016383081674575806,
          0.22095683217048645,
          -0.024085210636258125,
          -0.1994449496269226,
          -0.06399272382259369,
          -0.033688031136989594,
          -0.04002680256962776,
          0.18836188316345215,
          -0.17624270915985107,
          0.11762341111898422,
          -0.10560670495033264,
          0.02426544763147831,
          0.07749760895967484,
          0.34393835067749023,
          0.24159391224384308,
          0.23441918194293976,
          -0.2416723072528839,
          0.26189368963241577,
          0.00792841799557209
        ],
        [
          0.12944430112838745,
          0.0882154330611229,
          -0.11192410439252853,
          -0.16016188263893127,
          -0.010872500948607922,
          -0.10162271559238434,
          0.2694874703884125,
          -0.11610767245292664,
          0.0752662867307663,
          -0.11525579541921616,
          0.14714908599853516,
          0.11354556679725647,
          -0.1641538441181183,
          -0.10643037408590317,
          -0.3485393226146698,
          0.13917814195156097,
          0.004222228657454252,
          -0.36759263277053833,
          0.2861444652080536,
          0.20296381413936615
        ],
        [
          0.056033194065093994,
          -0.003904285142198205,
          -0.17942962050437927,
          -0.1173848956823349,
          -0.10603190213441849,
          -0.058414921164512634,
          -0.0954936072230339,
          0.16589422523975372,
          -0.19030089676380157,
          0.04290463775396347,
          -0.0008553758962079883,
          -0.1849789172410965,
          0.06448039412498474,
          -0.023309553042054176,
          0.4632946848869324,
          0.17146599292755127,
          0.24835623800754547,
          -0.31111887097358704,
          -0.23089022934436798,
          0.1560438871383667
        ],
        [
          0.09095020592212677,
          0.38805386424064636,
          -0.16982793807983398,
          -0.12142053246498108,
          0.21917372941970825,
          0.0892069935798645,
          0.07986847311258316,
          0.017946094274520874,
          0.2701193690299988,
          -0.20110934972763062,
          0.08217442035675049,
          -0.1665571928024292,
          -0.3316696584224701,
          -0.25588375329971313,
          -0.1012188196182251,
          0.2142600119113922,
          0.047810789197683334,
          0.032713018357753754,
          -0.0024272706359624863,
          0.3160971403121948
        ],
        [
          0.02390274778008461,
          -0.1527227908372879,
          0.12860684096813202,
          -0.15219314396381378,
          0.16410374641418457,
          -0.052866458892822266,
          0.04247640445828438,
          0.1118997111916542,
          -0.1164923757314682,
          -0.08314327895641327,
          0.174696683883667,
          -0.1492517739534378,
          0.22838592529296875,
          -0.0011978376423940063,
          -0.06536077708005905,
          -0.21537069976329803,
          0.14260880649089813,
          0.34230077266693115,
          0.02367698773741722,
          0.2981428802013397
        ],
        [
          0.18427377939224243,
          -0.17567922174930573,
          -0.12930600345134735,
          -0.015627741813659668,
          -0.17959921061992645,
          0.1416330635547638,
          0.11733308434486389,
          -0.13416515290737152,
          0.020489128306508064,
          -0.18816527724266052,
          0.09810524433851242,
          -0.07981305569410324,
          0.13299986720085144,
          -0.012394812889397144,
          -0.2561992108821869,
          0.32838770747184753,
          0.3328774869441986,
          -0.3815793991088867,
          -0.18385356664657593,
          0.07827475666999817
        ],
        [
          -0.0833931565284729,
          -0.3924826979637146,
          0.16257299482822418,
          0.12958534061908722,
          0.10245626419782639,
          -0.49402594566345215,
          -0.0017010632436722517,
          0.13720346987247467,
          0.11967005580663681,
          -0.05403175577521324,
          -0.15288633108139038,
          0.06522724777460098,
          0.1401527225971222,
          0.3038821220397949,
          0.5392274856567383,
          0.09968860447406769,
          -0.1611860692501068,
          0.19712767004966736,
          0.012559978291392326,
          0.05872713029384613
        ],
        [
          0.10864085704088211,
          -0.2966988980770111,
          0.03066529519855976,
          -0.016939589753746986,
          -0.158372700214386,
          -0.19780601561069489,
          0.2726217806339264,
          0.21140100061893463,
          -0.27929335832595825,
          -0.14410912990570068,
          0.14458350837230682,
          0.08385132253170013,
          0.11471346020698547,
          -0.6928426623344421,
          0.054942261427640915,
          -0.025726741179823875,
          0.2763526439666748,
          0.19318148493766785,
          -0.05150996893644333,
          0.01740920916199684
        ],
        [
          -0.01960729993879795,
          0.08656378835439682,
          0.20906981825828552,
          0.12427102029323578,
          -0.005405676085501909,
          0.08196617662906647,
          -0.14807197451591492,
          0.17838791012763977,
          -0.4192524254322052,
          0.20419302582740784,
          0.13342633843421936,
          0.09087753295898438,
          -0.09862600266933441,
          -0.09982691705226898,
          0.11480925977230072,
          0.3672766089439392,
          -0.38996219635009766,
          -0.0775505006313324,
          0.046386923640966415,
          -0.1003614142537117
        ],
        [
          0.0026797554455697536,
          -0.13928911089897156,
          0.09665697813034058,
          -0.02696973644196987,
          0.11672337353229523,
          0.004880593158304691,
          0.285447895526886,
          0.05891568958759308,
          0.013987935148179531,
          -0.042110368609428406,
          -0.05977681651711464,
          0.06403130292892456,
          0.29768797755241394,
          -0.22130030393600464,
          -0.2982797622680664,
          0.013655826449394226,
          0.29294294118881226,
          0.26007938385009766,
          -0.19942495226860046,
          -0.21453094482421875
        ],
        [
          0.2829543948173523,
          0.43611663579940796,
          -0.024309147149324417,
          0.039167627692222595,
          -0.004672076087445021,
          -0.15375679731369019,
          0.1247592493891716,
          -0.02661297284066677,
          -0.5659407377243042,
          0.050993744283914566,
          0.19328366219997406,
          0.04779713228344917,
          0.017918726429343224,
          -0.18371109664440155,
          -0.025524483993649483,
          0.05008161813020706,
          0.14995630085468292,
          -0.039739806205034256,
          0.04777711257338524,
          -0.2769952416419983
        ]
      ],
      "bias": [
        0.06073479354381561,
        -0.023237789049744606,
        -0.15612195432186127,
        0.30094635486602783,
        0.25259655714035034,
        0.2916257083415985,
        0.24273306131362915,
        -0.045666638761758804,
        0.02730211429297924,
        -0.19664035737514496,
        0.3041391372680664,
        -0.13083042204380035,
        0.09134545922279358,
        0.21270114183425903,
        0.142160102725029,
        -0.08779572695493698,
        0.08932176232337952,
        0.2936943471431732,
        0.2581407427787781,
        -0.12350626289844513,
        0.32127106189727783,
        0.16510191559791565,
        -0.1288813054561615,
        0.045272231101989746,
        -0.034810230135917664,
        0.0366818830370903,
        -0.08389223366975784,
        0.003191270399838686,
        0.32232433557510376,
        -0.00541576836258173,
        0.13863222301006317,
        -0.04963234066963196,
        0.1635226160287857,
        0.2788849174976349,
        0.0691242441534996,
        0.12355554848909378,
        0.3025692105293274,
        -0.10299105942249298,
        0.2195044457912445,
        -0.0653054267168045,
        0.037350844591856,
        -0.15810264647006989,
        0.12548789381980896,
        0.28135398030281067,
        0.08712261915206909,
        0.14835497736930847,
        0.055964622646570206,
        -0.1315116286277771,
        -0.07301367819309235,
        0.13397736847400665,
        0.218735933303833,
        0.2523721754550934,
        -0.052755676209926605,
        0.1347648650407791,
        0.3237355053424835,
        -0.09111436456441879,
        -0.23443591594696045,
        -0.11450671404600143,
        0.20793628692626953,
        -0.13244687020778656,
        -0.12793956696987152,
        0.1380525827407837,
        0.22373157739639282,
        0.1806839257478714
      ]
    },
    {
      "weight": [
        [
          0.3778912425041199,
          -0.2549842894077301,
          0.37632259726524353,
          -0.1446303278207779,
          0.22145599126815796,
          -0.1050957441329956,
          -0.22974996268749237,
          0.08013053238391876,
          0.4642024338245392,
          0.27063876390457153,
          0.15663880109786987,
          0.2816178798675537,
          -0.19002750515937805,
          -0.16091132164001465,
          -0.1184571385383606,
          0.45283108949661255,
          0.13333585858345032,
          -0.13782794773578644,
          -0.34558960795402527,
          -0.4059879779815674,
          0.005176011938601732,
          0.5814308524131775,
          -0.2493841052055359,
          -0.1654878556728363,
          -0.538539469242096,
          0.495676189661026,
          -0.12530681490898132,
          0.47176241874694824,
          -0.4196145832538605,
          -0.5850374102592468,
          0.08101706951856613,
          -0.18423709273338318,
          0.00683386018499732,
          -0.035374585539102554,
          -0.11228428781032562,
          0.09065473824739456,
          -0.04085291922092438,
          0.14948855340480804,
          0.038905929774045944,
          -0.2532864511013031,
          -0.06221787631511688,
          0.03417272865772247,
          0.25046998262405396,
          -0.15421144664287567,
          -0.3614954352378845,
          -0.15383532643318176,
          -0.07401876151561737,
          0.13762837648391724,
          -0.06975355744361877,
          0.06281040608882904,
          0.23643088340759277,
          0.1788080930709839,
          -0.3331851065158844,
          -0.27887269854545593,
          -0.3311419188976288,
          -0.008606231771409512,
          0.08561360090970993,
          -0.23217688500881195,
          0.34565460681915283,
          0.6606450080871582,
          0.16420680284500122,
          0.3898673355579376,
          0.27350160479545593,
          0.5321341753005981
        ],
        [
          -0.17024444043636322,
          0.38151803612709045,
          -0.013325078412890434,
          -0.0373704768717289,
          0.011355184949934483,
          0.02726522460579872,
          0.1446661651134491,
          0.03566111996769905,
          -0.24108895659446716,
          0.13185009360313416,
          0.167074054479599,
          0.3739127814769745,
          -0.004443475976586342,
          0.17678171396255493,
          0.003289923071861267,
          0.46643203496932983,
          0.07639021426439285,
          0.18394853174686432,
          0.035863932222127914,
          0.05239764228463173,
          -0.02655661478638649,
          -0.041453767567873,
          0.04417788237333298,
          0.03027648665010929,
          0.16591127216815948,
          -0.06653127819299698,
          -0.36637410521507263,
          -0.19661259651184082,
          0.14746123552322388,
          0.24375350773334503,
          0.1875309944152832,
          -0.003865168895572424,
          0.3031630516052246,
          -0.04667230695486069,
          0.2619253695011139,
          -0.09738099575042725,
          0.11208515614271164,
          0.34473147988319397,
          -0.026300232857465744,
          -0.3158479928970337,
          0.11084044724702835,
          0.32113218307495117,
          0.031352896243333817,
          -0.08731088042259216,
          0.024550151079893112,
          0.23051054775714874,
          0.13105443120002747,
          0.4468994736671448,
          0.16859307885169983,
          0.11469477415084839,
          0.08765067905187607,
          -0.11864688992500305,
          0.17270441353321075,
          -0.007254316471517086,
          0.2618040442466736,
          -0.12398863583803177,
          -0.22892220318317413,
          0.10310553014278412,
          -0.12309734523296356,
          -0.10712011903524399,
          -0.0008675387362018228,
          -0.040056731551885605,
          -0.16694329679012299,
          -0.048889849334955215
        ],
        [
          0.07805421203374863,
          0.11390742659568787,
          -0.0528494194149971,
          0.052725255489349365,
          0.13972406089305878,
          -0.005565106403082609,
          0.11984902620315552,
          -0.011991219595074654,
          -0.011899062432348728,
          -0.1453074812889099,
          0.08802597224712372,
          -0.10242205858230591,
          0.1441611796617508,
          0.09000822901725769,
          0.09636706113815308,
          0.0019601495005190372,
          0.0614464208483696,
          0.09560316056013107,
          0.03591335937380791,
          0.06557368487119675,
          0.05037451907992363,
          0.09825541079044342,
          0.03181460127234459,
          0.12110292911529541,
          0.09936084598302841,
          0.154952272772789,
          0.13359226286411285,
          0.05092204734683037,
          -0.00636139465495944,
          -0.027310866862535477,
          -0.0027251022402197123,
          0.03632974997162819,
          -0.042365752160549164,
          -0.0525498166680336,
          -0.010612959042191505,
          0.02278466708958149,
          0.0016838082810863853,
          0.037012845277786255,
          -0.02643466554582119,
          -0.0038349912501871586,
          0.05120804160833359,
          -0.11639917641878128,
          0.023899398744106293,
          0.12393680214881897,
          0.047422949224710464,
          0.029291188344359398,
          0.1549934595823288,
          0.08825114369392395,
          0.20001165568828583,
          0.013537198305130005,
          -0.10307221114635468,
          0.0837172195315361,
          0.13484908640384674,
          0.16384868323802948,
          0.20188716053962708,
          0.1931978017091751,
          -0.22713810205459595,
          0.1894698590040207,
          0.17105311155319214,
          -0.04449252784252167,
          -0.033479608595371246,
          -0.015420070849359035,
          0.023055385798215866,
          -0.07132332772016525
        ],
        [
          -0.1458365023136139,
          0.04817787557840347,
          -0.1243261992931366,
          -0.1224612295627594,
          0.02689312770962715,
          -0.0425076000392437,
          -0.029265407472848892,
          -0.08509670943021774,
          -0.017887741327285767,
          0.013104749843478203,
          -0.13220424950122833,
          -0.05781146138906479,
          -0.03703088313341141,
          0.0613037645816803,
          0.04782480373978615,
          0.050469011068344116,
          -0.10406675189733505,
          -0.0445733480155468,
          -0.05869287997484207,
          -0.14669810235500336,
          -0.13817113637924194,
          -0.06777571141719818,
          -0.05269719660282135,
          -0.008046495728194714,
          -0.166781485080719,
          -0.09789064526557922,
          0.06537297368049622,
          -0.0202878937125206,
          -0.1406208872795105,
          0.01140971016138792,
          -0.09800286591053009,
          -0.1211182251572609,
          -0.10174678266048431,
          -0.11654549092054367,
          -0.11749474704265594,
          -0.02659367397427559,
          0.019700659438967705,
          0.008856819011271,
          0.07283183187246323,
          0.07580219209194183,
          -0.13035567104816437,
          0.059504155069589615,
          -0.060447342693805695,
          0.023100988939404488,
          -0.11741545796394348,
          0.054495010524988174,
          -0.05887718126177788,
          -0.0013377044815570116,
          0.06695032864809036,
          -0.07049303501844406,
          0.004586311057209969,
          -0.01610880345106125,
          -0.08347369730472565,
          -0.05064278468489647,
          0.05343816056847572,
          -0.011871268972754478,
          0.09177307784557343,
          0.007760253269225359,
          0.009965693578124046,
          -0.12273512780666351,
          -0.08654742687940598,
          0.03390815109014511,
          -0.015311394818127155,
          0.01661362498998642
        ],
        [
          -0.18473407626152039,
          -0.03764711692929268,
          -0.20486561954021454,
          -0.06500611454248428,
          0.23627960681915283,
          0.061726368963718414,
          0.11358069628477097,
          0.3005075454711914,
          -0.15722954273223877,
          0.007381637115031481,
          -0.04113972559571266,
          -0.20181605219841003,
          -0.17964665591716766,
          -0.03853685036301613,
          0.24953146278858185,
          0.13180088996887207,
          -0.027720792219042778,
          0.16433531045913696,
          0.020430440083146095,
          0.12020669877529144,
          -0.07362178713083267,
          -0.08971041440963745,
          0.42082878947257996,
          -0.08334129303693771,
          -0.0800367221236229,
          -0.07136373221874237,
          0.2628452479839325,
          0.22183279693126678,
          -0.12079373002052307,
          -0.10999908298254013,
          -0.267097145318985,
          -0.32131025195121765,
          0.02191968634724617,
          0.056576572358608246,
          0.02282799780368805,
          -0.061927925795316696,
          0.15065410733222961,
          -0.06887445598840714,
          -0.5996728539466858,
          0.3457006514072418,
          -0.3193953037261963,
          -0.01817850023508072,
          0.033669713884592056,
          0.17308670282363892,
          0.24240198731422424,
          -0.10684657841920853,
          0.3901197612285614,
          0.34743183851242065,
          0.007361114490777254,
          0.09407436847686768,
          -0.15912839770317078,
          -0.16647984087467194,
          0.20533910393714905,
          -0.23129326105117798,
          0.03294344246387482,
          0.25173088908195496,
          0.31700438261032104,
          -0.13063548505306244,
          0.04771352559328079,
          -0.408175528049469,
          -0.45525506138801575,
          -0.13164034485816956,
          0.23997503519058228,
          -0.08120327442884445
        ],
        [
          0.033754926174879074,
          0.04617541283369064,
          -0.12018346041440964,
          -0.016388310119509697,
          -0.005293022841215134,
          0.06051894277334213,
          -0.04989408329129219,
          0.07370575517416,
          -0.000954729039222002,
          -0.1024431586265564,
          0.04191174358129501,
          -0.008154107257723808,
          -6.282065442064777e-05,
          -0.034314095973968506,
          -0.09950803220272064,
          0.056399356573820114,
          -0.03327598050236702,
          -0.06867887079715729,
          -0.029600946232676506,
          -0.14006578922271729,
          -0.010863165371119976,
          -0.16706132888793945,
          0.07321356981992722,
          0.037858642637729645,
          -0.12110936641693115,
          0.0065091862343251705,
          -0.008900287561118603,
          -0.07429008185863495,
          0.06451629102230072,
          -0.05687841400504112,
          -0.13265305757522583,
          -0.16856661438941956,
          -0.046649836003780365,
          -0.11862418055534363,
          -0.1638757884502411,
          -0.1476738303899765,
          0.044482942670583725,
          -0.09155147522687912,
          -0.1416134089231491,
          -0.07880575209856033,
          -0.0598406046628952,
          -0.0794716402888298,
          -0.13486775755882263,
          -0.12233340740203857,
          -0.14547206461429596,
          -0.030895022675395012,
          -0.038347773253917694,
          0.05045398697257042,
          -0.0011846163542941213,
          -0.02581161819398403,
          0.05560121312737465,
          -0.029742691665887833,
          -0.09014765173196793,
          0.048289790749549866,
          -0.11548574268817902,
          -0.1256750375032425,
          0.15740083158016205,
          0.05605030432343483,
          0.018723327666521072,
          -0.08665303140878677,
          0.044783156365156174,
          0.01646750420331955,
          -0.020372208207845688,
          -0.047157660126686096
        ],
        [
          0.16833066940307617,
          -0.19971111416816711,
          -0.06321205198764801,
          0.15762223303318024,
          0.10954161733388901,
          0.05945226922631264,
          0.030144251883029938,
          -0.040722619742155075,
          0.20367152988910675,
          0.10897912085056305,
          -0.09378080815076828,
          -0.1241486445069313,
          -0.030094601213932037,
          0.010105385445058346,
          0.09632644802331924,
          -0.16888879239559174,
          0.16978466510772705,
          -0.06885813176631927,
          0.1687047779560089,
          -0.04214688017964363,
          0.1200641617178917,
          0.14713437855243683,
          0.08969160169363022,
          0.04153892770409584,
          0.09520852565765381,
          0.16895344853401184,
          0.07994828373193741,
          0.06985963135957718,
          -0.022754620760679245,
          -0.06647476553916931,
          0.02395649068057537,
          0.0811387225985527,
          -0.1720619946718216,
          0.06789196282625198,
          0.15814308822155,
          0.21498630940914154,
          0.05766613036394119,
          0.18665893375873566,
          0.14113961160182953,
          0.0652058869600296,
          0.16834373772144318,
          0.022389939054846764,
          0.011783340945839882,
          0.18019144237041473,
          0.15167905390262604,
          0.10793298482894897,
          0.13808998465538025,
          -0.09629842638969421,
          -0.16412997245788574,
          -0.10473979264497757,
          -0.004666060209274292,
          0.056174762547016144,
          -0.010828360915184021,
          0.00839713029563427,
          0.07360808551311493,
          0.014696717262268066,
          -0.239643856883049,
          0.04670650511980057,
          0.13100916147232056,
          0.22898432612419128,
          -0.04241945594549179,
          0.2429242879152298,
          -0.0017411733279004693,
          0.02072211354970932
        ],
        [
          0.04280488193035126,
          0.17380906641483307,
          0.2193763107061386,
          0.022865135222673416,
          0.11154749989509583,
          0.08463243395090103,
          -0.024531370028853416,
          -0.0721321702003479,
          -0.08110133558511734,
          0.1956585943698883,
          0.15961430966854095,
          -0.011763879097998142,
          0.11140371114015579,
          0.18442648649215698,
          0.04999163746833801,
          0.07415997982025146,
          0.1552867293357849,
          0.14771151542663574,
          0.04375465586781502,
          0.1442939043045044,
          0.07737337797880173,
          0.13379934430122375,
          -0.1261550635099411,
          0.12051570415496826,
          0.15456625819206238,
          -0.04360119625926018,
          -0.1305597424507141,
          0.005891873501241207,
          0.1395576149225235,
          0.04289757087826729,
          0.05155092105269432,
          -0.10870794206857681,
          0.04637572169303894,
          -0.02798812836408615,
          -0.027984263375401497,
          0.09163377434015274,
          0.08357755094766617,
          -0.029984457418322563,
          0.10216332226991653,
          0.052995894104242325,
          -0.01638866402208805,
          -0.056860994547605515,
          -0.0137088093906641,
          0.019724491983652115,
          0.07061802595853806,
          0.14802463352680206,
          0.11578492075204849,
          -0.12393608689308167,
          0.08267124742269516,
          0.07796358317136765,
          -0.09247148782014847,
          0.13679809868335724,
          0.11188024282455444,
          0.0894339308142662,
          -0.05162737891077995,
          0.12410489469766617,
          -0.15089525282382965,
          -0.07568512111902237,
          0.03598412126302719,
          0.06949537247419357,
          0.10387786477804184,
          0.058801911771297455,
          0.12253597378730774,
          0.05145581066608429
        ],
        [
          -0.15888658165931702,
          0.2993970811367035,
          0.12240814417600632,
          -0.06632076948881149,
          0.004107069224119186,
          -0.056424956768751144,
          0.010559646412730217,
          -0.12498851865530014,
          -0.12214997410774231,
          -0.004966569133102894,
          -0.12266691774129868,
          0.14331042766571045,
          0.06339330971240997,
          0.08029156178236008,
          0.03710601106286049,
          0.32051676511764526,
          -0.1339035928249359,
          0.07775682210922241,
          -0.16700710356235504,
          0.06262936443090439,
          -0.15359649062156677,
          0.025075392797589302,
          -0.14847925305366516,
          0.023429637774825096,
          -0.06701155006885529,
          0.07382722198963165,
          -0.12691131234169006,
          -0.24397999048233032,
          -0.1570696383714676,
          -0.08435272425413132,
          -0.10372927784919739,
          0.09362521767616272,
          0.13329100608825684,
          -0.029355252161622047,
          0.03960181027650833,
          -0.13525822758674622,
          -0.01252517756074667,
          -0.08729974180459976,
          -0.06184575706720352,
          -0.22074052691459656,
          0.08761465549468994,
          0.02771497704088688,
          -0.17135818302631378,
          0.03200613334774971,
          -0.05663691461086273,
          0.04432855546474457,
          -0.13500313460826874,
          0.12413978576660156,
          0.15921874344348907,
          0.024112392216920853,
          -0.1249651238322258,
          -0.006244235206395388,
          -0.15852582454681396,
          0.020003056153655052,
          -0.12878328561782837,
          -0.11425203830003738,
          -0.09647997468709946,
          -0.03691192716360092,
          0.020008204504847527,
          -0.24715924263000488,
          -0.06325250118970871,
          0.03681742027401924,
          -0.19484126567840576,
          -0.05624398589134216
        ],
        [
          -0.04342270269989967,
          -0.12236718088388443,
          -0.17991340160369873,
          -0.08120296150445938,
          -0.01909075863659382,
          0.04492305591702461,
          -0.026220224797725677,
          0.015349704772233963,
          0.00871548056602478,
          -0.09797241538763046,
          -0.07632830739021301,
          -0.0791083499789238,
          -0.0008248075610026717,
          0.026440579444169998,
          0.04716610535979271,
          -0.09812970459461212,
          -0.046562809497117996,
          -0.03876126557588577,
          -0.153305321931839,
          0.02120308019220829,
          0.03689369186758995,
          -0.026716191321611404,
          -0.11653196811676025,
          0.03497205302119255,
          -0.005747619085013866,
          -0.10697603970766068,
          -0.009682471863925457,
          0.07786210626363754,
          -0.18746595084667206,
          -0.09008704125881195,
          -0.06817971169948578,
          -0.07064709067344666,
          -0.15000133216381073,
          -0.07760560512542725,
          -0.163150817155838,
          -0.02835923805832863,
          0.03132262080907822,
          -0.16545060276985168,
          0.08029095828533173,
          0.046331580728292465,
          -0.1006721705198288,
          0.08004635572433472,
          -0.06811189651489258,
          -0.09748849272727966,
          -0.1560264378786087,
          -0.10324934124946594,
          -0.08326379954814911,
          0.006025346461683512,
          -0.1101042628288269,
          0.0583663210272789,
          -0.0461672805249691,
          -0.02029690332710743,
          -0.08546867221593857,
          -0.14211851358413696,
          -0.1509384959936142,
          -0.055551812052726746,
          0.23805081844329834,
          -0.0016687995521351695,
          -0.023496678099036217,
          -0.12558287382125854,
          -0.001440302818082273,
          -0.06880398839712143,
          -0.14323824644088745,
          -0.10551297664642334
        ],
        [
          -0.16789667308330536,
          0.14330464601516724,
          0.3076229691505432,
          -0.15860368311405182,
          -0.138422891497612,
          0.03700760379433632,
          -0.09511922299861908,
          0.05825835466384888,
          0.01644109934568405,
          0.12496839463710785,
          0.020639080554246902,
          0.08607251942157745,
          -0.03766552358865738,
          -0.18565891683101654,
          -0.16571563482284546,
          0.15465636551380157,
          -0.0554821603000164,
          -0.0437391959130764,
          -0.028062965720891953,
          0.04411415755748749,
          -0.004494440276175737,
          -0.16165414452552795,
          -0.13263972103595734,
          -0.19722893834114075,
          -0.045961443334817886,
          0.1130799949169159,
          -0.22261734306812286,
          -0.12020435184240341,
          -0.006029963493347168,
          -0.07950902730226517,
          0.07230181992053986,
          -0.0736197754740715,
          0.029296910390257835,
          -0.06637530773878098,
          -0.15381057560443878,
          -0.06412377208471298,
          -0.06621436029672623,
          -0.11459886282682419,
          0.16582754254341125,
          -0.04897305741906166,
          0.0785960704088211,
          -0.07330744713544846,
          -0.08628726005554199,
          -0.11527304351329803,
          -0.1443241834640503,
          -0.08471617102622986,
          -0.1762518733739853,
          0.028323104605078697,
          -0.14812862873077393,
          -0.08766642212867737,
          -0.1421571522951126,
          -0.11419960856437683,
          -0.1835695058107376,
          -0.12386545538902283,
          -0.14006999135017395,
          -0.06290307641029358,
          -0.1603296548128128,
          -0.11181505024433136,
          -0.1279386281967163,
          -0.14932362735271454,
          0.038843460381031036,
          -0.04528232663869858,
          -0.17713190615177155,
          0.039525195956230164
        ],
        [
          -0.06637566536664963,
          0.270952969789505,
          -0.06548226624727249,
          -0.1961170881986618,
          -0.14756032824516296,
          -0.16724908351898193,
          0.027168910950422287,
          0.04631740599870682,
          -0.05162294954061508,
          -0.15973232686519623,
          -0.09920889884233475,
          -0.10847383737564087,
          0.06262920796871185,
          -0.15569418668746948,
          -0.03085038624703884,
          0.13084474205970764,
          -0.184983029961586,
          0.003504722146317363,
          0.0031093538273125887,
          -0.0098973223939538,
          0.06468560546636581,
          -0.12827354669570923,
          -0.16920994222164154,
          -0.13468116521835327,
          -0.20591585338115692,
          0.062292296439409256,
          -0.02218342013657093,
          -0.09543517231941223,
          -0.09817610681056976,
          0.02481931447982788,
          -0.0477372407913208,
          0.049794863909482956,
          -0.07322333753108978,
          -0.042379334568977356,
          -0.026664897799491882,
          -0.09859438985586166,
          0.05209667235612869,
          -0.10517848283052444,
          -0.012172223068773746,
          -0.10922401398420334,
          -0.016642838716506958,
          0.039381206035614014,
          -0.11804164201021194,
          0.06442337483167648,
          -0.056686874479055405,
          0.06921357661485672,
          0.024580659344792366,
          0.036425210535526276,
          -0.031732138246297836,
          0.0024496177211403847,
          -0.009826602414250374,
          -0.15089178085327148,
          0.05599157139658928,
          0.05829373002052307,
          -0.10013636201620102,
          -0.07465413957834244,
          0.041325464844703674,
          0.08318668603897095,
          -0.054867371916770935,
          -0.27636560797691345,
          -0.0029722023755311966,
          -0.052501432597637177,
          0.02676074393093586,
          -0.133332759141922
        ],
        [
          -0.36238253116607666,
          0.03961266949772835,
          0.182392880320549,
          -0.058920569717884064,
          0.17276236414909363,
          0.08786725252866745,
          -0.05146205052733421,
          -0.15369009971618652,
          0.10567324608564377,
          -0.3569466173648834,
          -0.3179691731929779,
          -0.05056951940059662,
          -0.3689546585083008,
          -0.44497713446617126,
          -0.029917947947978973,
          0.07049665600061417,
          -0.25848811864852905,
          -0.37206563353538513,
          -0.22877894341945648,
          0.048880305141210556,
          -0.10744218528270721,
          0.42115023732185364,
          -0.16353128850460052,
          0.0318462997674942,
          -0.2381053864955902,
          0.2361341416835785,
          -0.05459590256214142,
          0.03075362928211689,
          -0.4427626430988312,
          0.17681637406349182,
          -0.12877270579338074,
          -0.3089926242828369,
          0.1950882077217102,
          -0.09779523313045502,
          -0.25945785641670227,
          0.01355477049946785,
          -0.24949848651885986,
          0.12972597777843475,
          -0.17310473322868347,
          -0.25960585474967957,
          -0.4836025536060333,
          -0.08836338669061661,
          -0.11611371487379074,
          -0.17714883387088776,
          -0.24306586384773254,
          -0.22624945640563965,
          -0.3550325930118561,
          0.06552718579769135,
          -0.11857318878173828,
          -0.05401578173041344,
          0.013879494741559029,
          -0.17472894489765167,
          0.4023347795009613,
          -0.02849860116839409,
          -0.14376229047775269,
          -0.05748926103115082,
          -0.035132214426994324,
          0.13760483264923096,
          -0.017289897426962852,
          -0.3794807493686676,
          0.5399893522262573,
          -0.2849821448326111,
          -0.0073173572309315205,
          0.26491889357566833
        ],
        [
          0.021886536851525307,
          -0.014897056855261326,
          -0.2322932928800583,
          -0.01126896496862173,
          -0.14233122766017914,
          -0.1630006730556488,
          -0.02370198629796505,
          0.016134068369865417,
          0.015615739859640598,
          0.0591094009578228,
          0.04271489009261131,
          -0.07598116993904114,
          0.027926761656999588,
          -0.14737044274806976,
          0.037045836448669434,
          -0.14887602627277374,
          -0.12159627676010132,
          0.036829445511102676,
          -0.07013460993766785,
          -0.13238762319087982,
          -0.006619564723223448,
          0.05878714472055435,
          0.00665684649720788,
          0.026791147887706757,
          -0.12183452397584915,
          0.013937878422439098,
          -0.09768066555261612,
          -0.0024704982060939074,
          -0.05178571492433548,
          -0.13512994349002838,
          -0.02967139706015587,
          -0.11089618504047394,
          -0.08431579172611237,
          -0.1726451963186264,
          -0.00906764343380928,
          0.03082836978137493,
          0.08372463285923004,
          0.05271770805120468,
          -0.15783506631851196,
          0.06244703754782677,
          0.04205341637134552,
          0.017532087862491608,
          0.05401808023452759,
          0.03920390456914902,
          0.018758902326226234,
          -0.04417310282588005,
          -0.15142354369163513,
          -0.037438515573740005,
          -0.11596522480249405,
          0.0723608061671257,
          0.06015559285879135,
          -0.10295452922582626,
          0.10643991827964783,
          -0.07755612581968307,
          -0.16111578047275543,
          0.02541481889784336,
          0.1128692477941513,
          0.09378887712955475,
          0.015358315780758858,
          0.016029322519898415,
          0.028822097927331924,
          -0.0007933512097224593,
          -0.14469335973262787,
          -0.08057358860969543
        ],
        [
          0.022493062540888786,
          0.1541953980922699,
          0.13367776572704315,
          0.16289253532886505,
          -0.12566052377223969,
          -0.002573612844571471,
          0.0763804167509079,
          -0.07027803361415863,
          -0.006433155387639999,
          0.1696629524230957,
          0.0864408016204834,
          0.12558768689632416,
          0.07848941534757614,
          0.2038625329732895,
          -0.07311619073152542,
          -0.06716394424438477,
          0.15872801840305328,
          0.1969943344593048,
          0.08808563649654388,
          -0.2517654597759247,
          -0.03470722585916519,
          0.08957795798778534,
          -0.18846015632152557,
          0.02927904948592186,
          0.25719672441482544,
          -0.046258628368377686,
          0.040371011942625046,
          -0.06472653150558472,
          0.17326240241527557,
          0.12852869927883148,
          0.002773778513073921,
          0.08355299383401871,
          0.07535698264837265,
          -0.12718112766742706,
          0.03295746073126793,
          0.09342347830533981,
          0.1869797557592392,
          0.1711198389530182,
          -0.019110098481178284,
          -0.31137725710868835,
          -0.04719190672039986,
          -0.06689772754907608,
          -0.07268477231264114,
          0.07847876846790314,
          0.08035260438919067,
          0.057563431560993195,
          -0.13442739844322205,
          -0.11343652009963989,
          -0.05508696287870407,
          -0.006452871020883322,
          0.071100153028965,
          -0.05096011236310005,
          -0.15622001886367798,
          0.1283169537782669,
          0.040244780480861664,
          -0.18298573791980743,
          -0.042698707431554794,
          0.0011533548822626472,
          0.0848420113325119,
          0.04028705507516861,
          0.08063345402479172,
          0.19150394201278687,
          0.1615970879793167,
          0.11086598038673401
        ],
        [
          -0.08098819851875305,
          0.15739299356937408,
          -0.3342779278755188,
          0.07485496997833252,
          0.01243904884904623,
          0.022447459399700165,
          -0.0061696358025074005,
          0.18730200827121735,
          0.07764507085084915,
          -0.19583642482757568,
          0.1314002275466919,
          0.02004651352763176,
          0.1271522492170334,
          0.1418769359588623,
          0.21101796627044678,
          0.09924851357936859,
          -0.09002356976270676,
          0.17381447553634644,
          0.0487966351211071,
          0.2053852528333664,
          0.1688530147075653,
          0.025615394115447998,
          0.13114401698112488,
          0.028439709916710854,
          0.0777234137058258,
          0.033355001360177994,
          0.1312221735715866,
          0.13782043755054474,
          0.11134514212608337,
          0.03493141010403633,
          -0.12651729583740234,
          -0.15115880966186523,
          -0.05266888439655304,
          -0.08088857680559158,
          0.04827463999390602,
          0.024163464084267616,
          0.1808335930109024,
          0.10305067896842957,
          -0.03338991478085518,
          0.09889157116413116,
          0.17484523355960846,
          0.13364923000335693,
          0.13969534635543823,
          0.013048910535871983,
          0.014554526656866074,
          0.03394797816872597,
          0.10672258585691452,
          0.18319036066532135,
          0.22862492501735687,
          0.018434634432196617,
          -0.039290398359298706,
          0.12255019694566727,
          0.3106633126735687,
          0.1888710856437683,
          0.10892414301633835,
          0.21419619023799896,
          0.05292604863643646,
          0.08411914110183716,
          0.04155823215842247,
          -0.09831389784812927,
          -0.1776270568370819,
          -0.1647075116634369,
          0.006031176075339317,
          -0.1702924370765686
        ],
        [
          -0.22357942163944244,
          0.09901372343301773,
          0.039463892579078674,
          -0.05061902105808258,
          -0.15379035472869873,
          -0.022848574444651604,
          0.044526562094688416,
          0.0952732190489769,
          -0.1553267538547516,
          0.048696666955947876,
          0.054991140961647034,
          0.11579287797212601,
          0.0749056488275528,
          -0.17054174840450287,
          -0.16094136238098145,
          0.017460431903600693,
          0.02484656311571598,
          -0.14123420417308807,
          -0.07440166920423508,
          0.018977606669068336,
          -0.005311353597790003,
          -0.04506833106279373,
          0.019431309774518013,
          -0.052176009863615036,
          0.019124135375022888,
          -0.0915953516960144,
          -0.00021524884505197406,
          -0.006584933027625084,
          -0.16925975680351257,
          -0.05373520031571388,
          -0.07603783160448074,
          0.109984390437603,
          0.03019736334681511,
          -0.1981978863477707,
          -0.008834980428218842,
          -0.13312257826328278,
          -0.0846826508641243,
          -0.11087203025817871,
          -0.08538845181465149,
          -0.1483992487192154,
          0.015154882334172726,
          -0.03804360702633858,
          0.04540610313415527,
          -0.22457221150398254,
          -0.18198561668395996,
          -0.12451548874378204,
          -0.09975330531597137,
          -0.10526293516159058,
          -0.19176740944385529,
          -0.11837102472782135,
          0.011322361417114735,
          0.08544300496578217,
          -0.03940359503030777,
          0.03745348006486893,
          -0.22354653477668762,
          -0.07867378741502762,
          -0.06020433455705643,
          -0.13095641136169434,
          0.062089044600725174,
          0.06376270949840546,
          0.01649456098675728,
          -0.07690957188606262,
          0.055224671959877014,
          -0.031215190887451172
        ],
        [
          0.3329126536846161,
          -0.5571272373199463,
          0.23707914352416992,
          0.16819699108600616,
          0.0873115286231041,
          0.0900493860244751,
          0.0843554213643074,
          -0.013556309044361115,
          0.12872302532196045,
          0.07672281563282013,
          -0.12705840170383453,
          0.09954876452684402,
          0.0578237920999527,
          -0.12208934873342514,
          -0.04035346582531929,
          -0.18132421374320984,
          0.11099587380886078,
          0.057198625057935715,
          0.061116788536310196,
          0.13361351191997528,
          0.037657130509614944,
          0.19410060346126556,
          -0.2320326715707779,
          0.15893691778182983,
          -0.284360408782959,
          0.13299663364887238,
          -0.018899954855442047,
          0.033808834850788116,
          0.031871795654296875,
          -0.2009933590888977,
          -0.05854499340057373,
          -0.14613747596740723,
          -0.09421493113040924,
          0.16313518583774567,
          0.038728922605514526,
          0.12544502317905426,
          0.08017265796661377,
          -0.23331980407238007,
          0.09110505878925323,
          -0.07896128296852112,
          -0.10571391135454178,
          -0.2791978120803833,
          0.1209355890750885,
          -0.01792033016681671,
          0.12012600153684616,
          0.10227827727794647,
          0.04107961431145668,
          -0.24251604080200195,
          -0.05062413215637207,
          -0.046255599707365036,
          -0.011059727519750595,
          0.10345006734132767,
          -0.2985239624977112,
          0.13496586680412292,
          -0.09167873859405518,
          0.11537536978721619,
          0.021167509257793427,
          -0.0904872715473175,
          0.10231824964284897,
          0.4331195056438446,
          0.08062156289815903,
          0.11035408079624176,
          0.26038047671318054,
          0.24957634508609772
        ],
        [
          0.2624521255493164,
          -0.5840991735458374,
          0.17325210571289062,
          -0.011617457494139671,
          -0.15085765719413757,
          0.3188742399215698,
          0.3488102853298187,
          0.17108722031116486,
          -0.41082078218460083,
          -0.0545903742313385,
          -0.04678516089916229,
          0.9178938865661621,
          0.7426131367683411,
          -0.019540544599294662,
          -0.09661967307329178,
          0.3402164578437805,
          0.12796586751937866,
          -0.2647388279438019,
          -0.3676629364490509,
          0.3064664602279663,
          0.0745900496840477,
          0.6089506149291992,
          -0.3382197618484497,
          0.08302110433578491,
          -0.5620836019515991,
          0.40339910984039307,
          -0.660847008228302,
          -0.25353288650512695,
          -0.15663579106330872,
          0.367477148771286,
          -0.6587149500846863,
          0.5410520434379578,
          0.5511067509651184,
          -0.026300959289073944,
          -0.1099964827299118,
          -0.08733941614627838,
          -0.4706217050552368,
          0.16145610809326172,
          0.9321846961975098,
          -0.681167721748352,
          -0.729675829410553,
          0.30644989013671875,
          -0.25052350759506226,
          0.04944626986980438,
          -0.06892932951450348,
          -0.7991531491279602,
          -0.5235748291015625,
          -0.5842847228050232,
          0.5959821939468384,
          -0.2449190765619278,
          0.2885274887084961,
          -0.5425503849983215,
          0.15316706895828247,
          0.0074967979453504086,
          -0.21664638817310333,
          -0.3626207411289215,
          -0.4774100184440613,
          0.11531409621238708,
          0.13282698392868042,
          0.06575410068035126,
          0.7423964142799377,
          -0.2879793047904968,
          -0.2597079575061798,
          -0.005580921657383442
        ],
        [
          -0.21067240834236145,
          0.05402154475450516,
          0.08905249089002609,
          0.06936580687761307,
          -0.17872430384159088,
          -0.03575265407562256,
          -0.01643349975347519,
          -0.042005475610494614,
          -0.09418272227048874,
          0.02951999381184578,
          -0.026129581034183502,
          -0.011287425644695759,
          -0.008606355637311935,
          0.04509803280234337,
          -0.047961506992578506,
          0.05899504944682121,
          -0.09150003641843796,
          -0.016754090785980225,
          0.015942394733428955,
          0.07223755121231079,
          -0.10722628980875015,
          -0.15385586023330688,
          -0.0886310338973999,
          0.05045618861913681,
          0.03134840726852417,
          -0.013331898488104343,
          -0.03402240201830864,
          -0.1088588759303093,
          -0.11467240005731583,
          -0.02608393505215645,
          0.05653710663318634,
          0.08286400139331818,
          0.0610203891992569,
          -0.18915550410747528,
          0.03733706474304199,
          -0.09070099890232086,
          -0.10510288923978806,
          -0.1694156378507614,
          0.010620112530887127,
          -0.14477837085723877,
          -0.026986222714185715,
          0.08137150853872299,
          -0.12156808376312256,
          -0.01574064791202545,
          -0.17871999740600586,
          -0.0860564112663269,
          -0.00987106841057539,
          0.0430150143802166,
          0.030950356274843216,
          -0.0882328599691391,
          0.06528563052415848,
          -0.12616005539894104,
          0.07108473032712936,
          -0.1423974484205246,
          -0.152220219373703,
          0.01957765407860279,
          0.03716917708516121,
          -0.09398065507411957,
          0.014625588431954384,
          -0.06361468136310577,
          0.06856103241443634,
          -0.024610277265310287,
          -0.03319992125034332,
          0.036904703825712204
        ],
        [
          -0.08093712478876114,
          0.17849639058113098,
          -0.1631062775850296,
          0.008792603388428688,
          0.11624274402856827,
          0.16590161621570587,
          0.17600995302200317,
          0.1246383935213089,
          -0.08138620853424072,
          -0.10775281488895416,
          0.15069304406642914,
          0.0036801311653107405,
          0.1608426868915558,
          0.04223550483584404,
          0.18348249793052673,
          -0.009025709703564644,
          -0.008602934889495373,
          0.07301779091358185,
          0.13115514814853668,
          0.15049360692501068,
          0.06923896819353104,
          -0.057313498109579086,
          0.1100459098815918,
          0.08550752699375153,
          -0.03837117180228233,
          0.14220286905765533,
          -0.006586998701095581,
          0.14533190429210663,
          -0.022081570699810982,
          0.11374301463365555,
          0.09994044154882431,
          -0.039020225405693054,
          -0.07020999491214752,
          -0.06528934836387634,
          0.10375715792179108,
          0.07160255312919617,
          0.17929641902446747,
          0.08117758482694626,
          0.04667492210865021,
          -0.019308259710669518,
          -0.029976392164826393,
          -0.05359331890940666,
          -0.04925113171339035,
          -0.0013941527577117085,
          -0.03159646689891815,
          0.008881199173629284,
          0.04403035715222359,
          0.06618917733430862,
          0.0761713832616806,
          0.13712534308433533,
          0.0795724019408226,
          0.05597185343503952,
          0.07236902415752411,
          0.025675710290670395,
          0.01664191484451294,
          0.03353501483798027,
          0.1794651597738266,
          0.09584280848503113,
          0.0813227966427803,
          -0.10094656050205231,
          0.04599124938249588,
          -0.07735081017017365,
          0.14021621644496918,
          -0.14101865887641907
        ],
        [
          -0.160421222448349,
          -0.029406366869807243,
          -0.09600415825843811,
          -0.13406889140605927,
          -0.12516051530838013,
          0.059548527002334595,
          -0.162396639585495,
          -0.006426464766263962,
          0.0580567941069603,
          0.024891844019293785,
          0.06822982430458069,
          -0.011015672236680984,
          -0.15875031054019928,
          -0.12651418149471283,
          -0.039269618690013885,
          -0.04173269122838974,
          -0.030879352241754532,
          -0.11028113961219788,
          -0.08992984890937805,
          -0.11598826199769974,
          -0.030052239075303078,
          -0.13644585013389587,
          -0.0898621454834938,
          0.0006099510937929153,
          -0.05043252184987068,
          0.05812273547053337,
          -0.09307452291250229,
          0.06462830305099487,
          -0.07716318219900131,
          -0.026032859459519386,
          -0.0973765030503273,
          0.03126634284853935,
          -0.02376311644911766,
          -0.021030591800808907,
          0.02479725517332554,
          -0.07114563137292862,
          -0.16746985912322998,
          -0.08132175356149673,
          -0.06170594319701195,
          0.075136199593544,
          -0.029137080535292625,
          0.019990501925349236,
          0.05004625394940376,
          -0.08858784288167953,
          -0.07498422265052795,
          0.05742837116122246,
          0.06543402373790741,
          -0.03885386884212494,
          0.0726092979311943,
          -0.01815331168472767,
          0.07692087441682816,
          -0.05156556889414787,
          0.031385064125061035,
          0.0011614518007263541,
          0.019552232697606087,
          0.013739148154854774,
          0.0024417841341346502,
          -0.08395498991012573,
          -0.07319342344999313,
          -0.12436065822839737,
          -0.07805675268173218,
          -0.01788869872689247,
          -0.15705664455890656,
          0.062004394829273224
        ],
        [
          0.1893499493598938,
          -0.1300429105758667,
          -0.2594618797302246,
          0.003307454055175185,
          0.21357643604278564,
          0.02732802927494049,
          0.01638481207191944,
          0.06431052833795547,
          0.12283267825841904,
          -0.21451851725578308,
          0.098177969455719,
          -0.21092963218688965,
          0.09022901207208633,
          0.012263542041182518,
          0.224664106965065,
          -0.17282132804393768,
          0.21034976840019226,
          -0.06560349464416504,
          0.13153429329395294,
          -0.22290602326393127,
          0.1938791126012802,
          -0.08832546323537827,
          0.3206885755062103,
          0.15996097028255463,
          0.2304990142583847,
          -0.05187257006764412,
          0.058537643402814865,
          0.012002376839518547,
          0.07937883585691452,
          -0.04099109768867493,
          0.0012905256589874625,
          0.03904367983341217,
          -0.25464165210723877,
          -0.03925783559679985,
          0.09891097992658615,
          0.17867346107959747,
          -0.02886834181845188,
          0.17264293134212494,
          -0.12940849363803864,
          0.16554835438728333,
          0.09656134992837906,
          0.060023900121450424,
          0.06871333718299866,
          0.1173669695854187,
          0.17114418745040894,
          0.018199624493718147,
          0.2751948833465576,
          0.09035563468933105,
          -0.07357153296470642,
          -0.09832312911748886,
          -0.010624918155372143,
          0.10404559969902039,
          0.030678609386086464,
          0.01646881178021431,
          0.12144944816827774,
          0.16809959709644318,
          -0.20111019909381866,
          0.03542445972561836,
          0.08338399231433868,
          0.01866224780678749,
          -0.2369004487991333,
          0.3044857084751129,
          0.16996683180332184,
          -0.18906961381435394
        ],
        [
          0.12681974470615387,
          -0.03222624957561493,
          -0.10085286945104599,
          -0.018412914127111435,
          0.1161230131983757,
          -0.0013074761955067515,
          -0.03961959108710289,
          -0.03421594575047493,
          -0.040813736617565155,
          -0.014312158338725567,
          0.048215676099061966,
          -0.06540599465370178,
          0.04178463667631149,
          0.18138058483600616,
          0.1446487009525299,
          -0.17672379314899445,
          0.14189544320106506,
          -0.016571233049035072,
          0.00830681063234806,
          0.08221817016601562,
          -0.07266058772802353,
          -0.0742197334766388,
          0.2521427273750305,
          0.20125769078731537,
          0.19072698056697845,
          -0.10309506207704544,
          -0.015951845794916153,
          0.16835707426071167,
          -0.029008040204644203,
          0.0337974987924099,
          0.06356997042894363,
          -0.026416979730129242,
          0.11234507709741592,
          0.19727690517902374,
          0.07236544787883759,
          0.11962578445672989,
          0.17017318308353424,
          0.11690938472747803,
          -0.1496352255344391,
          0.04816437512636185,
          -0.039487775415182114,
          0.14016014337539673,
          -0.04016493633389473,
          0.2014584094285965,
          0.03383819758892059,
          -0.05556638538837433,
          0.0809357613325119,
          0.1205439493060112,
          0.10444983094930649,
          0.11028391122817993,
          0.1157849058508873,
          -0.01587342470884323,
          0.1594722419977188,
          0.009759011678397655,
          0.24643169343471527,
          0.0949394702911377,
          0.04384675621986389,
          0.09218475967645645,
          -0.004332154989242554,
          0.1229579746723175,
          -0.11919938027858734,
          -0.026086287572979927,
          -0.051214996725320816,
          -0.17864777147769928
        ],
        [
          -0.4589988589286804,
          0.3153863251209259,
          0.07922638952732086,
          -0.5110234618186951,
          0.1495353877544403,
          0.01385526079684496,
          -0.7876390814781189,
          -0.5805023908615112,
          0.17449739575386047,
          -0.042923398315906525,
          -0.25666922330856323,
          0.3001476228237152,
          -0.254061222076416,
          -0.07338843494653702,
          -0.6643372178077698,
          0.21726876497268677,
          -0.7018841505050659,
          0.010873515158891678,
          -0.4021707773208618,
          -0.13735321164131165,
          -0.11848579347133636,
          0.36640873551368713,
          -0.13172626495361328,
          -0.6628449559211731,
          -0.20473697781562805,
          0.48188698291778564,
          -0.3148816227912903,
          -0.027605196461081505,
          -0.6447320580482483,
          -0.16247904300689697,
          0.5711774230003357,
          -0.06534767150878906,
          -0.15652963519096375,
          -0.4358862042427063,
          -0.350119411945343,
          -0.10003598034381866,
          0.09401513636112213,
          -0.7572925686836243,
          0.22948582470417023,
          -0.34848421812057495,
          -0.3186512291431427,
          -0.20984697341918945,
          0.016474824398756027,
          -0.4262707829475403,
          -0.9088966250419617,
          -0.45755982398986816,
          -0.39889922738075256,
          0.10657677799463272,
          -0.02322852984070778,
          0.13943630456924438,
          -0.5272045135498047,
          0.15532954037189484,
          0.30062010884284973,
          -0.207163468003273,
          -0.23015491664409637,
          -0.13647671043872833,
          -0.6638155579566956,
          0.17157520353794098,
          0.11096858978271484,
          0.39863359928131104,
          0.725651741027832,
          -0.262582391500473,
          0.3490760922431946,
          0.482205867767334
        ],
        [
          0.22004705667495728,
          0.002897013910114765,
          -0.24770750105381012,
          -0.14483170211315155,
          0.044733863323926926,
          -0.09815932810306549,
          -0.01434188149869442,
          -0.12169374525547028,
          0.07848835736513138,
          -0.15903644263744354,
          -0.06296835094690323,
          0.05416565015912056,
          -0.10434745252132416,
          0.0641171932220459,
          -9.124170173890889e-05,
          -0.09391771256923676,
          -0.08488964289426804,
          -0.019996387884020805,
          -0.10873238742351532,
          -0.18474352359771729,
          0.01872779242694378,
          -0.052384499460458755,
          0.08081168681383133,
          0.07875537872314453,
          -0.12624621391296387,
          0.043636102229356766,
          0.17321401834487915,
          -0.0003591231070458889,
          -0.20329679548740387,
          0.0810408964753151,
          -0.00807584822177887,
          -0.2022956758737564,
          -0.017245713621377945,
          0.04463165998458862,
          -0.016559580340981483,
          0.025820694863796234,
          -0.0716320276260376,
          -0.2399059534072876,
          -0.031937312334775925,
          -0.003565083257853985,
          -0.24755758047103882,
          -0.042261019349098206,
          -0.034157175570726395,
          -0.10232925415039062,
          0.11527447402477264,
          -0.12308019399642944,
          0.08149009943008423,
          -0.18399691581726074,
          0.18601830303668976,
          0.0014165617758408189,
          -0.10254285484552383,
          -0.07966314256191254,
          -0.03854651376605034,
          -0.12205863744020462,
          -0.12802232801914215,
          0.05458367243409157,
          0.5616585612297058,
          0.0845075473189354,
          -0.09594907611608505,
          -0.008694494143128395,
          -0.007922093383967876,
          0.05087484046816826,
          -0.11917118728160858,
          -0.033811647444963455
        ],
        [
          -0.05724478140473366,
          0.003886604215949774,
          -0.1771143674850464,
          0.015204198658466339,
          0.0197770856320858,
          0.0584358312189579,
          0.03419258072972298,
          -0.11221495270729065,
          -0.10004804283380508,
          -0.08609087020158768,
          -0.02307303622364998,
          -0.03781704232096672,
          -0.1514328122138977,
          -0.1702270209789276,
          -0.06439600139856339,
          -0.16931305825710297,
          -0.06615607440471649,
          -0.05657438188791275,
          -0.058447256684303284,
          -0.20652009546756744,
          0.008170637302100658,
          -0.01834573596715927,
          -0.029054731130599976,
          -0.06521457433700562,
          0.050052061676979065,
          0.04744261875748634,
          -0.09453168511390686,
          -0.003512586932629347,
          -0.1482275426387787,
          -0.14501552283763885,
          -0.10004301369190216,
          -0.06052238494157791,
          0.07078634947538376,
          0.05589958280324936,
          -0.09234291315078735,
          0.004903445951640606,
          0.07106813043355942,
          0.047739334404468536,
          0.02996434085071087,
          0.03594179451465607,
          0.03893287479877472,
          -0.03426145017147064,
          0.04536667466163635,
          0.03721793368458748,
          -0.09927292168140411,
          -0.12354818731546402,
          -0.034679874777793884,
          -0.1662280559539795,
