{
  "schema": "zenpicker-multihead-v1",
  "knob_axes": [
    {
      "name": "subsampling",
      "values": [
        "444",
        "422",
        "420"
      ]
    },
    {
      "name": "progressive_mode",
      "values": [
        "baseline",
        "progressive_search"
      ]
    },
    {
      "name": "effort",
      "values": [
        1,
        2
      ]
    },
    {
      "name": "chroma_distance_scale",
      "values": [
        0.7,
        1.2
      ]
    },
    {
      "name": "aq_enabled",
      "values": [
        "false",
        "true"
      ]
    },
    {
      "name": "auto_optimize",
      "values": [
        "false",
        "true"
      ]
    }
  ],
  "input_features": [
    "aspect_min_over_max",
    "chroma_complexity",
    "colourfulness",
    "dct_compressibility_uv",
    "dct_compressibility_y",
    "edge_density",
    "flat_color_block_ratio",
    "gradient_fraction",
    "high_freq_energy_ratio",
    "laplacian_variance",
    "log_pixels",
    "luma_histogram_entropy",
    "uniformity",
    "variance",
    "cclass_illustration_or_logo",
    "cclass_illustration_or_screen",
    "cclass_photo_natural_or_detailed",
    "cclass_photo_or_illustration",
    "cclass_photo_wide_gamut",
    "target_band_70.0",
    "target_band_75.0",
    "target_band_80.0",
    "target_band_85.0"
  ],
  "feature_means": [
    0.7339232563972473,
    0.12310153245925903,
    0.0,
    0.0,
    0.0,
    0.15896573662757874,
    0.34517133235931396,
    0.0,
    0.23776303231716156,
    0.0,
    12.282849311828613,
    2.7393298149108887,
    0.5096226930618286,
    3502.148681640625,
    0.14540816843509674,
    0.29719388484954834,
    0.2142857164144516,
    0.2551020383834839,
    0.08801020681858063,
    0.25,
    0.25,
    0.25,
    0.25
  ],
  "feature_stds": [
    0.18625468015670776,
    0.11243580281734467,
    9.999999974752427e-07,
    9.999999974752427e-07,
    9.999999974752427e-07,
    0.12673935294151306,
    0.3158954977989197,
    9.999999974752427e-07,
    0.2098027914762497,
    9.999999974752427e-07,
    1.392840027809143,
    1.3413668870925903,
    0.2553394138813019,
    2582.190185546875,
    0.3525680899620056,
    0.45709550380706787,
    0.41039133071899414,
    0.43598806858062744,
    0.28335490822792053,
    0.4330817461013794,
    0.4330817461013794,
    0.4330817461013794,
    0.4330817461013794
  ],
  "activation": "leakyrelu",
  "alpha": 0.1,
  "layers": [
    {
      "weight": [
        [
          -0.06967557221651077,
          -0.31448236107826233,
          0.06639139354228973,
          0.06542329490184784,
          -0.11144016683101654,
          -0.16594281792640686,
          -0.04138157144188881,
          0.054100822657346725,
          -0.12179024517536163,
          0.14648008346557617,
          0.13404497504234314,
          0.13422846794128418,
          0.07631708681583405,
          -0.22367683053016663,
          0.03720466047525406,
          -0.07753776013851166,
          0.07161177694797516,
          -0.1848827749490738,
          0.17508402466773987,
          -0.18983270227909088,
          0.10118906944990158,
          0.13522614538669586,
          0.016591139137744904
        ],
        [
          0.1413068026304245,
          0.11209365725517273,
          0.03887786343693733,
          0.15833863615989685,
          0.053622376173734665,
          0.1519627869129181,
          -0.29569754004478455,
          0.1484295129776001,
          0.25390565395355225,
          0.05281395837664604,
          0.15052472054958344,
          0.16214820742607117,
          0.13835296034812927,
          0.044917941093444824,
          -0.17693179845809937,
          -0.049436770379543304,
          -0.13496562838554382,
          0.12935008108615875,
          -0.11431057751178741,
          -0.22722573578357697,
          0.1726684868335724,
          0.15558160841464996,
          0.1748645305633545
        ],
        [
          -0.08956750482320786,
          -0.3845682442188263,
          0.09877249598503113,
          -0.19469445943832397,
          -0.1703982949256897,
          0.3073151111602783,
          0.34904012084007263,
          -0.012390222400426865,
          -0.2924388647079468,
          0.0056968932040035725,
          -0.08082027733325958,
          -0.1436995565891266,
          0.11376282572746277,
          0.13493184745311737,
          0.053819045424461365,
          -0.024088820442557335,
          0.11851342767477036,
          -0.15047091245651245,
          -0.1203557625412941,
          0.0881098136305809,
          -0.04917442798614502,
          -0.17848117649555206,
          0.00796827394515276
        ],
        [
          0.1937105357646942,
          0.14447149634361267,
          -0.08110444247722626,
          0.1141590103507042,
          -0.11429413408041,
          -0.17364655435085297,
          0.3349437117576599,
          0.03840038552880287,
          -0.18424339592456818,
          0.07028885185718536,
          -0.11746694892644882,
          0.21482838690280914,
          -0.034640468657016754,
          -0.042836036533117294,
          -0.05247456580400467,
          -0.04268107935786247,
          -0.197129487991333,
          0.1946665346622467,
          0.07063420861959457,
          0.02236999198794365,
          0.17907507717609406,
          -0.17246638238430023,
          -0.10760356485843658
        ],
        [
          0.09088750183582306,
          0.06222609803080559,
          -0.1900048851966858,
          -0.14431649446487427,
          -0.12692813575267792,
          0.09806594997644424,
          0.17410282790660858,
          0.1612996906042099,
          -0.1399184763431549,
          -0.20328247547149658,
          -0.24780896306037903,
          -0.07062523066997528,
          -0.01599293015897274,
          -0.04250825569033623,
          0.15297730267047882,
          -0.14531373977661133,
          -0.19161321222782135,
          0.18513457477092743,
          -0.10973995178937912,
          0.20905809104442596,
          0.1296159029006958,
          0.05005234107375145,
          -0.08821026235818863
        ],
        [
          -0.10634307563304901,
          -0.4499732255935669,
          -0.09799440205097198,
          -0.11797913908958435,
          0.03697238489985466,
          0.11827930063009262,
          -0.08371153473854065,
          0.13592000305652618,
          -0.35214245319366455,
          0.04209491237998009,
          -0.0014651475939899683,
          -0.14794528484344482,
          -0.18570290505886078,
          0.22039641439914703,
          0.03493482246994972,
          -0.07462646812200546,
          0.009719576686620712,
          -0.30067968368530273,
          0.1483643800020218,
          0.08314712345600128,
          0.05970152094960213,
          0.04621559754014015,
          0.10211552679538727
        ],
        [
          0.249506413936615,
          -0.1723269522190094,
          -0.03417845070362091,
          0.07216624170541763,
          0.026823529973626137,
          0.02658369205892086,
          -0.2221885621547699,
          -0.14620113372802734,
          -0.0472637340426445,
          -0.01118469052016735,
          0.14469754695892334,
          0.07293585687875748,
          -0.06305007636547089,
          -0.23300781846046448,
          -0.16569784283638,
          0.11253052204847336,
          0.20407313108444214,
          -0.0804561972618103,
          -0.2512238323688507,
          0.23424892127513885,
          0.21636220812797546,
          -0.19880743324756622,
          -0.21883270144462585
        ],
        [
          0.03495718538761139,
          -0.13507014513015747,
          -0.1933315247297287,
          0.09127701073884964,
          -0.17109371721744537,
          0.11531725525856018,
          -0.2351117879152298,
          0.15680216252803802,
          -0.04643086716532707,
          0.09669187664985657,
          -0.2667435109615326,
          0.350080281496048,
          -0.14467191696166992,
          -0.10905560106039047,
          -0.18878652155399323,
          -0.02121858298778534,
          0.017893198877573013,
          0.21686986088752747,
          -0.10619383305311203,
          0.2499987930059433,
          0.11844173073768616,
          -0.12931841611862183,
          0.018567955121397972
        ],
        [
          -0.03532741218805313,
          -0.07146380096673965,
          -0.13679230213165283,
          0.12148997187614441,
          0.12516085803508759,
          0.14900755882263184,
          0.14208747446537018,
          0.20830337703227997,
          0.13369275629520416,
          -0.2012123465538025,
          0.17950838804244995,
          -0.005510048009455204,
          0.04558142274618149,
          0.027592534199357033,
          0.1258656233549118,
          -0.1961776316165924,
          0.058063287287950516,
          0.19992201030254364,
          -0.032344572246074677,
          -0.16882601380348206,
          -0.2033209353685379,
          -0.02111511118710041,
          0.023377038538455963
        ],
        [
          0.08042321354150772,
          -0.16907955706119537,
          0.1570504903793335,
          -0.03782651573419571,
          0.059501271694898605,
          -0.1917445808649063,
          0.31773898005485535,
          0.08001136034727097,
          -0.2822088301181793,
          0.13705961406230927,
          0.11358337849378586,
          0.027702752500772476,
          -0.04902806505560875,
          0.0806436836719513,
          0.0947604700922966,
          -0.026261398568749428,
          0.017375001683831215,
          -0.032154180109500885,
          -0.06542930006980896,
          0.12293500453233719,
          -0.02498670108616352,
          -0.32111501693725586,
          -0.20822268724441528
        ],
        [
          -0.15407408773899078,
          0.24069929122924805,
          0.1275390088558197,
          0.1895543336868286,
          0.20443709194660187,
          0.1096506342291832,
          0.18378202617168427,
          -0.035557013005018234,
          0.11218838393688202,
          -0.07971452176570892,
          -0.16857142746448517,
          -0.17165996134281158,
          -0.19421648979187012,
          -0.19619669020175934,
          0.0717981606721878,
          0.20412248373031616,
          -0.21801680326461792,
          -0.24371328949928284,
          -0.1462908536195755,
          0.1926770657300949,
          -0.07588834315538406,
          0.1253967434167862,
          -0.07820549607276917
        ],
        [
          -0.17004923522472382,
          -0.4951060712337494,
          0.11814595013856888,
          0.05661136656999588,
          0.13070283830165863,
          -0.05897684767842293,
          -0.04174504429101944,
          -0.08762302994728088,
          0.3764098286628723,
          -0.026923056691884995,
          -0.1115632876753807,
          0.15296214818954468,
          0.026219837367534637,
          0.1206781417131424,
          -0.26427677273750305,
          -0.18037734925746918,
          0.23500891029834747,
          -0.14835990965366364,
          -0.007946017198264599,
          0.0156541895121336,
          0.12058050185441971,
          -0.13794606924057007,
          -0.20214231312274933
        ],
        [
          -0.060021501034498215,
          -0.15818247199058533,
          0.12755072116851807,
          0.127627894282341,
          0.09458281844854355,
          0.1896173655986786,
          -0.11597912013530731,
          -0.0008279600879177451,
          -0.27851182222366333,
          -0.00040820083813741803,
          -0.2795863151550293,
          -0.23553794622421265,
          0.1460004597902298,
          -0.15251575410366058,
          -0.04493946582078934,
          -0.04470974951982498,
          -0.16954603791236877,
          0.03274902328848839,
          -0.032236307859420776,
          0.21552732586860657,
          -0.09245730191469193,
          0.26417145133018494,
          -0.1988837718963623
        ],
        [
          0.08902622759342194,
          0.2849247455596924,
          0.02155902236700058,
          -0.07160849869251251,
          0.15423355996608734,
          -0.12958139181137085,
          -0.1371227502822876,
          -0.07268612086772919,
          -0.3486226797103882,
          -0.02083461917936802,
          -0.3839297592639923,
          0.07281526178121567,
          -0.16979840397834778,
          -0.2938115894794464,
          0.021173590794205666,
          0.2594269812107086,
          0.23157981038093567,
          -0.2685399353504181,
          0.0833200067281723,
          0.07388176769018173,
          -0.07982096821069717,
          0.17493659257888794,
          -0.12669676542282104
        ],
        [
          0.12676189839839935,
          -0.46970030665397644,
          -0.1197163313627243,
          -0.13218393921852112,
          -0.040661491453647614,
          0.07032393664121628,
          0.1743086725473404,
          -0.12317101657390594,
          0.11928395926952362,
          0.1059180200099945,
          -0.277648389339447,
          -0.32294705510139465,
          0.007818660698831081,
          0.08750202506780624,
          -0.26080286502838135,
          0.025704950094223022,
          0.15924710035324097,
          -0.058605168014764786,
          -0.035236962139606476,
          0.14597457647323608,
          0.16262221336364746,
          -0.09329020231962204,
          -0.1420765519142151
        ],
        [
          0.10653956234455109,
          0.17189963161945343,
          0.10199806839227676,
          -0.13526563346385956,
          0.16368281841278076,
          -0.10187240689992905,
          0.009770972654223442,
          -0.05846108868718147,
          -0.1022791638970375,
          -0.1945389211177826,
          -0.03328211233019829,
          -0.08187893778085709,
          0.24377299845218658,
          -0.1788012832403183,
          0.03992346301674843,
          0.27051809430122375,
          -0.0898173376917839,
          -0.07259860634803772,
          -0.05553437024354935,
          0.06843478232622147,
          0.059125714004039764,
          -0.22195599973201752,
          0.08427996188402176
        ],
        [
          -0.10930922627449036,
          -0.3599821627140045,
          0.10626154392957687,
          0.050187207758426666,
          0.1519099920988083,
          -0.09058753401041031,
          0.1878841519355774,
          -0.04950787127017975,
          -0.27867645025253296,
          0.19247692823410034,
          0.14964152872562408,
          0.12849311530590057,
          0.02055281028151512,
          -0.19238069653511047,
          0.072491355240345,
          0.1356504112482071,
          0.018468394875526428,
          0.0901174545288086,
          -0.03975524380803108,
          0.21129047870635986,
          0.07627864927053452,
          0.029201071709394455,
          0.017388757318258286
        ],
        [
          -0.2693040668964386,
          0.07142035663127899,
          -0.10406297445297241,
          0.1763298064470291,
          -0.010513169690966606,
          0.061777807772159576,
          -0.13499772548675537,
          -0.008755292743444443,
          0.2772360146045685,
          4.6280551032396033e-05,
          0.1798761934041977,
          0.2581843137741089,
          -0.24807129800319672,
          0.4117947518825531,
          0.07630605250597,
          -0.03344699367880821,
          -0.008071741089224815,
          0.04802330955862999,
          0.17725734412670135,
          -0.012012407183647156,
          -0.17119814455509186,
          -0.03337192162871361,
          0.20691195130348206
        ],
        [
          -0.14403653144836426,
          -0.3222261369228363,
          -0.18711934983730316,
          -0.18139472603797913,
          0.04760582372546196,
          -0.09004633873701096,
          0.014512703754007816,
          -0.04710185155272484,
          0.07927528768777847,
          0.07595111429691315,
          0.007249787915498018,
          -0.06903631240129471,
          0.29092270135879517,
          0.2556878626346588,
          -0.08724341541528702,
          0.12386462092399597,
          -0.05114341154694557,
          -0.007047295570373535,
          -0.03264598175883293,
          0.17770801484584808,
          0.0049766297452151775,
          0.08767098933458328,
          0.10620564222335815
        ],
        [
          0.02558531053364277,
          -0.0028758225962519646,
          -0.020272158086299896,
          0.10824474692344666,
          -0.08145522326231003,
          -0.002215951681137085,
          -0.014895696192979813,
          0.03693559765815735,
          0.23267622292041779,
          0.011526471935212612,
          0.047113087028265,
          -0.20892731845378876,
          0.19014358520507812,
          -0.16373901069164276,
          -0.09797875583171844,
          0.09481538832187653,
          0.07604491710662842,
          0.24644216895103455,
          0.17811647057533264,
          -0.18585440516471863,
          -0.04980699345469475,
          -0.1078072264790535,
          0.315053254365921
        ],
        [
          -0.18614700436592102,
          0.09145763516426086,
          0.19089879095554352,
          0.045358143746852875,
          -0.1802678108215332,
          -0.027295680716633797,
          -0.03903801366686821,
          0.06391654908657074,
          0.045299921184778214,
          0.11611668765544891,
          0.26972928643226624,
          -0.17007578909397125,
          -0.18683959543704987,
          0.0374937504529953,
          -0.09718655049800873,
          0.12349686771631241,
          0.22093477845191956,
          0.060407381504774094,
          -0.24616611003875732,
          -0.024409208446741104,
          0.1491234004497528,
          -0.04308653995394707,
          0.16136601567268372
        ],
        [
          -0.23845365643501282,
          -0.22615653276443481,
          -0.10168330371379852,
          0.15844236314296722,
          0.09120029956102371,
          0.11980189383029938,
          -0.08178380131721497,
          -0.02458166517317295,
          0.1330546885728836,
          -0.005584266502410173,
          0.0230134017765522,
          -0.27999934554100037,
          0.12237158417701721,
          0.24280482530593872,
          -0.1620441973209381,
          -0.16478970646858215,
          -0.013823696412146091,
          -0.045733075588941574,
          -0.2674216628074646,
          0.1337469518184662,
          -0.15741504728794098,
          0.13526484370231628,
          0.039994072169065475
        ],
        [
          0.1509219855070114,
          0.23137077689170837,
          -0.19600209593772888,
          -0.16803115606307983,
          0.16711169481277466,
          -0.06873870640993118,
          0.11397824436426163,
          -0.12707220017910004,
          0.15394210815429688,
          0.11791624873876572,
          -0.02872345969080925,
          -0.2625945508480072,
          -0.19636328518390656,
          -0.08312435448169708,
          -0.2613508105278015,
          0.20431707799434662,
          -0.024229170754551888,
          0.086695596575737,
          -0.05867983028292656,
          0.035265225917100906,
          0.016106469556689262,
          -0.011182790622115135,
          0.21499645709991455
        ],
        [
          0.249307781457901,
          -0.0013774060644209385,
          0.1438944935798645,
          -0.04493958130478859,
          -0.1582387238740921,
          0.05008714273571968,
          0.19279921054840088,
          0.03381044417619705,
          -0.2737894356250763,
          0.150505930185318,
          0.07226434350013733,
          -0.20706380903720856,
          -0.07300523668527603,
          -0.1909938007593155,
          0.1699473112821579,
          0.13815662264823914,
          -0.08251692354679108,
          0.18939027190208435,
          0.12951290607452393,
          0.18684963881969452,
          -0.04064426198601723,
          0.1743563413619995,
          -0.07636839896440506
        ],
        [
          -0.018912827596068382,
          0.22902469336986542,
          -0.08698803186416626,
          0.15218482911586761,
          -0.11090776324272156,
          0.07219837605953217,
          -0.08427466452121735,
          -0.13892318308353424,
          -0.087702177464962,
          0.16435715556144714,
          -0.10265475511550903,
          -0.23917138576507568,
          0.0999673455953598,
          -0.14309628307819366,
          -0.17928627133369446,
          0.03715136647224426,
          -0.14064492285251617,
          0.14714863896369934,
          -0.05390365049242973,
          -0.18334205448627472,
          -0.2065141499042511,
          0.15066970884799957,
          -0.06392078101634979
        ],
        [
          0.24082760512828827,
          0.18421804904937744,
          0.08273967355489731,
          -0.14546729624271393,
          0.08384550362825394,
          -0.19780007004737854,
          0.14714562892913818,
          -0.09707790613174438,
          -0.04535922780632973,
          0.0022866162471473217,
          -0.19126351177692413,
          -0.26634466648101807,
          -0.03499341011047363,
          0.13278767466545105,
          -0.037899456918239594,
          -0.014519776217639446,
          -0.19957688450813293,
          -0.037072569131851196,
          -0.2031242549419403,
          -0.1410708874464035,
          0.19851186871528625,
          0.23883849382400513,
          -0.2501900792121887
        ],
        [
          -0.13392049074172974,
          0.16055883467197418,
          -0.1407318115234375,
          -0.0231073796749115,
          -0.10573231428861618,
          0.21477748453617096,
          -0.07153797894716263,
          0.01713099703192711,
          0.14791803061962128,
          -0.14771273732185364,
          -0.1623729169368744,
          0.3247407078742981,
          -0.003948194440454245,
          0.2848442494869232,
          0.14340217411518097,
          0.10917938500642776,
          0.028143731877207756,
          -0.07044582813978195,
          0.14084450900554657,
          -0.2004927694797516,
          -0.15850524604320526,
          -0.09990538656711578,
          -0.12796679139137268
        ],
        [
          0.15286745131015778,
          0.24391569197177887,
          -0.175458624958992,
          -0.008778708055615425,
          0.1997838020324707,
          -0.048164304345846176,
          0.0406825914978981,
          0.08962487429380417,
          -0.33627960085868835,
          -0.19450655579566956,
          0.06567605584859848,
          -0.03188420459628105,
          0.049569495022296906,
          0.04639854282140732,
          0.19632819294929504,
          0.15614637732505798,
          -0.004724743310362101,
          -0.13624267280101776,
          0.05356905236840248,
          0.06522022187709808,
          0.12993967533111572,
          -0.19553382694721222,
          0.07765350490808487
        ],
        [
          0.095176100730896,
          -0.44943439960479736,
          0.009813498705625534,
          0.12770652770996094,
          -0.15920080244541168,
          0.23845069110393524,
          -0.2592448890209198,
          -0.19499313831329346,
          -0.08226155489683151,
          -0.18841807544231415,
          0.07666183263063431,
          0.27406516671180725,
          -0.16682471334934235,
          -0.12682490050792694,
          0.004409633111208677,
          -0.10697965323925018,
          0.07656273990869522,
          -0.16515804827213287,
          -0.036102913320064545,
          0.06409291923046112,
          0.2704402208328247,
          -0.008630565367639065,
          -0.314841628074646
        ],
        [
          -0.011002293787896633,
          -0.11068040132522583,
          -0.13929744064807892,
          0.08237659186124802,
          0.08234594017267227,
          -0.14237836003303528,
          -0.16294509172439575,
          0.030232051387429237,
          0.0911550521850586,
          -0.032206855714321136,
          -0.2922148108482361,
          0.19047310948371887,
          0.11065304279327393,
          0.07812996208667755,
          0.036900442093610764,
          0.21943973004817963,
          0.049775224179029465,
          -0.1536925882101059,
          -0.02672784961760044,
          0.06168653815984726,
          0.02756296657025814,
          -0.16626650094985962,
          -0.16182512044906616
        ],
        [
          0.19554537534713745,
          0.07475913316011429,
          0.1932821422815323,
          0.1273806244134903,
          0.11996619403362274,
          0.06502899527549744,
          0.1736849546432495,
          -0.053466375917196274,
          -0.019637471064925194,
          0.08416762202978134,
          -0.047170571982860565,
          -0.17062270641326904,
          -0.11317051202058792,
          -0.31416893005371094,
          -0.1727668195962906,
          0.03564870357513428,
          0.25088128447532654,
          -0.06202276796102524,
          -0.2389671802520752,
          -0.00783318467438221,
          0.1228577271103859,
          0.04666661098599434,
          -0.2791806757450104
        ],
        [
          0.03779522329568863,
          0.3039229214191437,
          -0.17650040984153748,
          0.1224459633231163,
          0.007001231424510479,
          -0.07238544523715973,
          0.2373703420162201,
          -0.13702844083309174,
          0.019383426755666733,
          0.17281386256217957,
          0.2318107783794403,
          0.14377637207508087,
          0.024703171104192734,
          0.26124638319015503,
          0.03714863583445549,
          -0.38935527205467224,
          -0.07557421177625656,
          0.1706589162349701,
          0.12292303144931793,
          -0.07500570267438889,
          0.034413326531648636,
          -0.020667845383286476,
          0.15309283137321472
        ],
        [
          -0.006560234818607569,
          0.24865537881851196,
          -0.10054051131010056,
          0.032897353172302246,
          -0.08111440390348434,
          -0.02510932832956314,
          0.32334765791893005,
          0.04395191743969917,
          -0.39245089888572693,
          0.046199947595596313,
          -0.14184921979904175,
          0.2175007462501526,
          0.2046702355146408,
          0.15858715772628784,
          0.11246004700660706,
          -0.17144855856895447,
          -0.22829961776733398,
          -0.1111275777220726,
          -0.027942121028900146,
          0.2297590672969818,
          0.15394914150238037,
          -0.13124847412109375,
          -0.16482551395893097
        ],
        [
          -0.1439308375120163,
          0.07443974167108536,
          -0.2004457265138626,
          -0.203892782330513,
          0.08660267293453217,
          0.0645284429192543,
          0.02791582979261875,
          -0.1165187731385231,
          -0.42295941710472107,
          0.07080311328172684,
          -0.03314364701509476,
          -0.2235916703939438,
          0.1848425567150116,
          -0.22461487352848053,
          0.1655506044626236,
          -0.018634144216775894,
          0.14287793636322021,
          -0.035644181072711945,
          0.10021167248487473,
          -0.04542072117328644,
          0.04633408412337303,
          -0.34104326367378235,
          0.18619918823242188
        ],
        [
          -0.1418071687221527,
          0.14982542395591736,
          0.00019310126663185656,
          -0.13272514939308167,
          -0.0601981095969677,
          -0.1253492683172226,
          0.008543994277715683,
          -0.09182443469762802,
          -0.3672325909137726,
          0.021748904138803482,
          0.1721840351819992,
          0.11319062113761902,
          0.2375277280807495,
          0.03959512338042259,
          0.12913648784160614,
          0.10312223434448242,
          0.013521792367100716,
          0.06674858927726746,
          0.05566572770476341,
          0.1913653016090393,
          -0.11117222905158997,
          -0.1869029402732849,
          -0.21868658065795898
        ],
        [
          0.060777004808187485,
          -0.10653526335954666,
          -0.12874367833137512,
          -0.13093379139900208,
          0.1609359085559845,
          0.2019323706626892,
          0.08916940540075302,
          0.037578944116830826,
          0.08688607811927795,
          0.01996259018778801,
          -0.3215624988079071,
          -0.062499359250068665,
          0.10778433084487915,
          0.06312758475542068,
          0.10648664087057114,
          0.12527231872081757,
          0.12413854151964188,
          -0.011556251905858517,
          0.07816044241189957,
          -0.14017093181610107,
          0.06515705585479736,
          0.1926434338092804,
          -0.1673911064863205
        ],
        [
          0.2665129005908966,
          -0.1411249041557312,
          -0.10630546510219574,
          0.16052713990211487,
          0.14913637936115265,
          -0.1730438470840454,
          0.24062958359718323,
          0.015036322176456451,
          -0.3050508499145508,
          -0.06088818609714508,
          0.0780186653137207,
          -0.22045545279979706,
          0.05919470638036728,
          0.13824868202209473,
          0.1999596804380417,
          0.21475179493427277,
          -0.09787576645612717,
          0.07554172724485397,
          -0.019853202626109123,
          0.0867551863193512,
          -0.11231796443462372,
          0.015601202845573425,
          0.17275141179561615
        ],
        [
          -0.12990087270736694,
          -0.06322833150625229,
          0.12172307819128036,
          0.00027402935666032135,
          0.14953550696372986,
          -0.06261499971151352,
          0.021876461803913116,
          -0.1707943081855774,
          -0.37238621711730957,
          -0.03951302915811539,
          0.07942337542772293,
          -0.00674046203494072,
          0.13396519422531128,
          0.24147415161132812,
          0.10701566934585571,
          -0.0771450474858284,
          -0.0940929427742958,
          0.1322508007287979,
          -0.15283946692943573,
          0.17278997600078583,
          0.019754445180296898,
          -0.03307732194662094,
          -0.19949086010456085
        ],
        [
          -0.06535975635051727,
          0.04776039347052574,
          0.06778683513402939,
          -0.197532057762146,
          -0.11760710924863815,
          0.20687894523143768,
          0.20957288146018982,
          0.09588554501533508,
          -0.16896487772464752,
          -0.04921575263142586,
          -0.1635993868112564,
          -0.06356117874383926,
          -0.1793101727962494,
          -0.1441638469696045,
          0.05618640407919884,
          0.12378966063261032,
          -0.14434002339839935,
          0.046163737773895264,
          -0.24229906499385834,
          -0.3277773857116699,
          0.17261247336864471,
          -0.10999306291341782,
          0.1301194578409195
        ],
        [
          0.21080082654953003,
          0.0389627106487751,
          -0.057709041982889175,
          0.1922331601381302,
          0.15679962933063507,
          0.12034907191991806,
          -0.1012183204293251,
          -0.11146075278520584,
          0.4071328639984131,
          -0.1136416643857956,
          0.00838985200971365,
          -0.020557161420583725,
          0.16263440251350403,
          0.06501609086990356,
          0.2450263798236847,
          -0.12975557148456573,
          -0.18681418895721436,
          -0.1091214269399643,
          -0.25081998109817505,
          -0.1862313151359558,
          0.08319035172462463,
          0.009558547288179398,
          0.07381647825241089
        ],
        [
          -0.2318606972694397,
          -0.01073556300252676,
          0.20178820192813873,
          0.2080370932817459,
          -0.08667200058698654,
          -0.140762060880661,
          0.24428735673427582,
          0.10586072504520416,
          0.03223748505115509,
          0.05460524186491966,
          0.2546398937702179,
          -0.20011889934539795,
          -0.17214615643024445,
          0.003974630497395992,
          0.17052938044071198,
          -0.13991636037826538,
          0.1127602607011795,
          -0.06136615201830864,
          -0.2053135484457016,
          -0.07125425338745117,
          0.18066829442977905,
          0.2642422914505005,
          0.09992633014917374
        ],
        [
          0.179478719830513,
          0.13503162562847137,
          0.09158754348754883,
          0.07158809155225754,
          -0.08676735311746597,
          0.1727183610200882,
          0.07471845299005508,
          -0.07688901573419571,
          0.20313814282417297,
          0.19993746280670166,
          0.20940566062927246,
          -0.07076025754213333,
          -0.11053646355867386,
          0.21621446311473846,
          0.1306825578212738,
          0.07918378710746765,
          -0.08521652221679688,
          0.24213801324367523,
          0.0020073570776730776,
          0.15061183273792267,
          -0.08262458443641663,
          -0.2194923311471939,
          0.2173760086297989
        ],
        [
          0.29214152693748474,
          -0.28348568081855774,
          0.20213404297828674,
          0.17198629677295685,
          0.1748923808336258,
          0.03930739685893059,
          0.07913906872272491,
          -0.0698547512292862,
          -0.1281472146511078,
          -0.13819576799869537,
          0.13984082639217377,
          0.011218385770916939,
          -0.0011952444911003113,
          0.23711715638637543,
          0.12747696042060852,
          0.22367949783802032,
          0.19155767560005188,
          -0.10144590586423874,
          -0.29214438796043396,
          -0.02211262471973896,
          0.20738309621810913,
          -0.11640291661024094,
          -0.11277364194393158
        ],
        [
          0.21288196742534637,
          -0.15392066538333893,
          0.1198938637971878,
          -0.14001387357711792,
          0.041395388543605804,
          0.08145954459905624,
          -0.05554724484682083,
          -0.07623142749071121,
          -0.1537926346063614,
          -0.03856039047241211,
          0.2328210324048996,
          0.14827802777290344,
          0.25802239775657654,
          -0.16502560675144196,
          0.03082229569554329,
          0.11251506954431534,
          0.17307209968566895,
          -0.20343247056007385,
          -0.09972502291202545,
          -0.14365504682064056,
          0.02875165268778801,
          0.1019899994134903,
          -0.20104661583900452
        ],
        [
          -0.11468549072742462,
          -0.34381574392318726,
          -0.18051369488239288,
          0.06979981809854507,
          -0.1898282766342163,
          -0.1997557282447815,
          0.15184235572814941,
          -0.20139744877815247,
          -0.22272883355617523,
          -0.1598609983921051,
          -0.10508929938077927,
          0.20729488134384155,
          0.05911601707339287,
          -0.37555354833602905,
          0.10462874174118042,
          0.146464005112648,
          0.2346753031015396,
          -0.022184329107403755,
          0.10725343972444534,
          0.13622033596038818,
          0.16365569829940796,
          0.03609105199575424,
          -0.15111808478832245
        ],
        [
          -0.16459332406520844,
          -0.22437720000743866,
          -0.09086655080318451,
          0.18494661152362823,
          -0.20780649781227112,
          -0.022855624556541443,
          0.26886752247810364,
          0.07940517365932465,
          -0.297465056180954,
          -0.002468444174155593,
          -0.06568015366792679,
          -0.19128426909446716,
          -0.05980570241808891,
          -0.11896846443414688,
          0.18138663470745087,
          0.010091109201312065,
          -0.08455416560173035,
          -0.1183842271566391,
          -0.1610901951789856,
          -0.22663094103336334,
          0.13626877963542938,
          -0.16272082924842834,
          0.025493698194622993
        ],
        [
          0.09606482833623886,
          0.1360868215560913,
          -0.11808952689170837,
          -0.04263820871710777,
          0.20606328547000885,
          -0.048871513456106186,
          -0.3112033009529114,
          -0.0684027373790741,
          0.11102118343114853,
          -0.03732893243432045,
          0.20718975365161896,
          -0.03348124772310257,
          0.05047537013888359,
          0.014988553710281849,
          -0.16844339668750763,
          -0.08650927990674973,
          0.22284400463104248,
          0.24527853727340698,
          0.18943119049072266,
          0.01375496108084917,
          0.09954457730054855,
          0.040315259248018265,
          0.09579931199550629
        ],
        [
          -0.0561942458152771,
          -0.3396006226539612,
          -0.14936670660972595,
          -0.010139595717191696,
          -0.09063269197940826,
          0.17048455774784088,
          -0.06572487205266953,
          0.11006543785333633,
          -0.29221242666244507,
          0.11391529440879822,
          -0.12846240401268005,
          -0.09961254149675369,
          0.03903175890445709,
          -0.14812935888767242,
          -0.011705895885825157,
          -0.1285376250743866,
          -0.25817880034446716,
          0.2161138951778412,
          0.11739445477724075,
          0.11467909067869186,
          0.14199669659137726,
          -0.20916146039962769,
          -0.16105082631111145
        ],
        [
          -0.11351679265499115,
          -0.19251376390457153,
          -0.043070219457149506,
          0.15471215546131134,
          -0.1318931132555008,
          0.08088775724172592,
          0.11556555330753326,
          -0.10583760589361191,
          0.09886334836483002,
          -0.05757874250411987,
          0.21396489441394806,
          0.2715795934200287,
          0.10470198839902878,
          -0.2361782044172287,
          -0.1420707404613495,
          0.18463021516799927,
          -0.11607908457517624,
          0.25714123249053955,
          -0.2523525357246399,
          -0.2886066734790802,
          0.16240745782852173,
          0.07597985863685608,
          0.04583678022027016
        ],
        [
          0.1526903212070465,
          -0.045573074370622635,
          -0.18755541741847992,
          0.06601931154727936,
          0.11161777377128601,
          0.09352370351552963,
          -0.10597779601812363,
          -0.06231986731290817,
          0.057949166744947433,
          -0.06973510980606079,
          0.08972208201885223,
          -0.14333973824977875,
          -0.020022794604301453,
          0.2153097689151764,
          -0.1028786450624466,
          0.12644973397254944,
          -0.17952591180801392,
          0.2886636257171631,
          -0.17613103985786438,
          0.034074246883392334,
          0.19688907265663147,
          0.03236345574259758,
          -0.14577241241931915
        ],
        [
          0.06361079216003418,
          -0.01130057591944933,
          0.09582313150167465,
          -0.06165735423564911,
          0.014395064674317837,
          0.03196454420685768,
          0.183310866355896,
          0.15940305590629578,
          0.0058807190507650375,
          0.1842057853937149,
          0.2121022790670395,
          -0.28187718987464905,
          -0.18640488386154175,
          0.009962175972759724,
          -0.3033081591129303,
          0.11808688938617706,
          0.22055736184120178,
          -0.047800734639167786,
          -0.1770731508731842,
          -0.25506091117858887,
          0.07930868864059448,
          0.0409957654774189,
          0.1925741732120514
        ],
        [
          -0.07186844199895859,
          -0.4693843424320221,
          0.18745268881320953,
          0.20588715374469757,
          -0.14443138241767883,
          -0.18699346482753754,
          0.018424497917294502,
          -0.13416947424411774,
          -0.3752357065677643,
          0.15161508321762085,
          0.10792778432369232,
          0.1542568802833557,
          -0.06638752669095993,
          -0.05829377844929695,
          0.16944801807403564,
          0.10712975263595581,
          -0.014850561507046223,
          0.011291882954537868,
          0.05863378942012787,
          0.21271607279777527,
          0.10642719268798828,
          0.21101367473602295,
          0.19740493595600128
        ],
        [
          -0.28809481859207153,
          0.333696186542511,
          -0.008017442189157009,
          -0.05296086147427559,
          0.17674414813518524,
          -0.0659589171409607,
          -0.06658564507961273,
          -0.01579812355339527,
          0.022592153400182724,
          -0.1582774668931961,
          0.323924720287323,
          0.3806507885456085,
          -0.04807700961828232,
          0.12342695891857147,
          0.15710799396038055,
          0.12022232264280319,
          0.10111494362354279,
          -0.18417039513587952,
          0.012326608411967754,
          0.06857616454362869,
          0.03042871505022049,
          0.3563726842403412,
          0.07401160895824432
        ],
        [
          -0.028792481869459152,
          0.07221724838018417,
          0.07169962674379349,
          0.19497859477996826,
          0.11589580774307251,
          0.04178541526198387,
          0.03829994425177574,
          -0.07737051695585251,
          0.24776512384414673,
          -0.10499207675457001,
          0.29567819833755493,
          0.30444076657295227,
          -0.15013134479522705,
          -0.0021741981618106365,
          -0.2455926239490509,
          0.17151537537574768,
          0.1885293424129486,
          -0.16786102950572968,
          -0.0015088345389813185,
          0.13893002271652222,
          -0.13808615505695343,
          -0.05763149634003639,
          -0.09060098975896835
        ],
        [
          0.09261195361614227,
          0.2326602190732956,
          0.10885908454656601,
          0.03439833223819733,
          0.16863800585269928,
          -0.003855513408780098,
          0.1617516279220581,
          -0.039271868765354156,
          -0.20510233938694,
          0.08754213899374008,
          0.16201472282409668,
          0.08072391897439957,
          -0.12623697519302368,
          0.20213790237903595,
          0.18237999081611633,
          -0.05680923908948898,
          -0.1804857701063156,
          0.053917039185762405,
          0.12000614404678345,
          -0.008121627382934093,
          -0.002560401801019907,
          0.03867426887154579,
          0.04907689243555069
        ],
        [
          -0.1094885915517807,
          0.3538227677345276,
          -0.02481922321021557,
          -0.1727207899093628,
          0.047556906938552856,
          0.16783326864242554,
          -0.22799986600875854,
          -0.010157790966331959,
          -0.2426971197128296,
          0.05821254476904869,
          0.003870717715471983,
          0.23793546855449677,
          -0.04044799506664276,
          0.29177600145339966,
          -0.26056021451950073,
          -0.07039091736078262,
          -0.10987840592861176,
          -0.07800865173339844,
          0.11257439106702805,
          0.1004236713051796,
          0.09967444837093353,
          0.11222373694181442,
          -0.051886316388845444
        ],
        [
          0.07283362001180649,
          -0.3946434259414673,
          0.1844593733549118,
          -0.02639186568558216,
          -0.00947768334299326,
          0.18979404866695404,
          0.04298326373100281,
          -0.14720182120800018,
          0.06035382300615311,
          0.14507676661014557,
          0.13922211527824402,
          -0.25699397921562195,
          0.1694074422121048,
          0.10390656441450119,
          -0.25942161679267883,
          0.03384849429130554,
          -0.05748024210333824,
          -0.014563746750354767,
          -0.2334008812904358,
          0.1053842306137085,
          0.14611905813217163,
          -0.09216683357954025,
          -0.04650120064616203
        ],
        [
          -0.207749143242836,
          0.17746470868587494,
          0.16146036982536316,
          0.002488975878804922,
          0.00961954053491354,
          0.2113208770751953,
          -0.30113399028778076,
          0.09251569956541061,
          0.051103245466947556,
          -0.09100975096225739,
          -0.0908607766032219,
          0.11874522268772125,
          0.18743349611759186,
          0.05692451074719429,
          0.014075801707804203,
          0.014651833102107048,
          -0.05859653651714325,
          -0.2888769805431366,
          -0.03168725222349167,
          0.10718747228384018,
          0.1539732962846756,
          -0.013419989496469498,
          0.0071311164647340775
        ],
        [
          0.12525376677513123,
          -0.23721849918365479,
          -0.20701564848423004,
          -0.20791494846343994,
          0.11882670968770981,
          -0.20056381821632385,
          -0.24518217146396637,
          0.06911436468362808,
          0.05306161567568779,
          0.094663605093956,
          -0.15808992087841034,
          0.3588466942310333,
          0.20728500187397003,
          0.03038908541202545,
          -0.1949329376220703,
          -0.0990137904882431,
          -0.11895157396793365,
          -0.16506148874759674,
          0.11880715936422348,
          0.21119040250778198,
          0.15671448409557343,
          0.13383418321609497,
          -0.26664769649505615
        ],
        [
          0.025037456303834915,
          0.2681617736816406,
          0.1130618080496788,
          0.16790816187858582,
          -0.0907336100935936,
          0.19231221079826355,
          -0.21707922220230103,
          -0.05187588557600975,
          0.26481252908706665,
          -0.015436667017638683,
          0.09331893175840378,
          0.19986437261104584,
          -0.12055286765098572,
          -0.01721225678920746,
          0.13818387687206268,
          0.16272185742855072,
          -0.03249204158782959,
          -0.3076501190662384,
          0.028153831139206886,
          -0.07678081840276718,
          0.11631528288125992,
          -0.14104492962360382,
          0.16473476588726044
        ],
        [
          0.056333646178245544,
          0.030175402760505676,
          -0.10422516614198685,
          0.04291829466819763,
          -0.16775988042354584,
          0.08494516462087631,
          -0.2702728807926178,
          -0.18354842066764832,
          -0.321212500333786,
          0.11140919476747513,
          -0.2641908824443817,
          0.35215190052986145,
          -0.33638447523117065,
          0.04682622477412224,
          -0.036639779806137085,
          0.07005685567855835,
          0.17674165964126587,
          0.0322384312748909,
          0.08249425888061523,
          0.13367711007595062,
          -0.0174455214291811,
          -0.09597738832235336,
          0.034463562071323395
        ],
        [
          0.12915684282779694,
          -0.13963313400745392,
          0.120073601603508,
          -0.15104049444198608,
          0.1661645919084549,
          -0.2590910792350769,
          0.17568080127239227,
          -0.055302999913692474,
          -0.27844202518463135,
          -0.07284952700138092,
          0.011119111441075802,
          0.11359406262636185,
          0.2435729205608368,
          -0.4717634320259094,
          0.00985982920974493,
          -0.15582413971424103,
          0.14822298288345337,
          -0.20583686232566833,
          0.18212032318115234,
          0.02990693412721157,
          0.11318209767341614,
          0.08664378523826599,
          0.045134469866752625
        ],
        [
          0.007529539987444878,
          0.31136029958724976,
          -0.09824306517839432,
          0.012128007598221302,
          0.1327705830335617,
          0.14724017679691315,
          -0.03733205795288086,
          0.019159266725182533,
          -0.05305666849017143,
          -0.15071606636047363,
          -0.013773159123957157,
          0.1663558930158615,
          0.1178806945681572,
          -0.1409723460674286,
          -0.18988065421581268,
          0.18405388295650482,
          -0.03761113062500954,
          -0.06258675456047058,
          0.23579147458076477,
          0.12483162432909012,
          -0.08903818577528,
          -0.08293882757425308,
          0.1170792356133461
        ],
        [
          0.2985309064388275,
          0.16114415228366852,
          -0.17959488928318024,
          0.15567240118980408,
          0.17014950513839722,
          0.1681576371192932,
          0.23895539343357086,
          -0.19342729449272156,
          -0.03642017021775246,
          -0.008467425592243671,
          -0.14215202629566193,
          -0.16494473814964294,
          0.04380907118320465,
          0.2891415059566498,
          0.08856777846813202,
          0.04853898286819458,
          -0.0008947481401264668,
          -0.13898059725761414,
          -0.001716546481475234,
          0.08725187927484512,
          -0.13821420073509216,
          -0.19760620594024658,
          -0.17991220951080322
        ]
      ],
      "bias": [
        0.13963867723941803,
        0.16568529605865479,
        0.03040522336959839,
        0.02667739987373352,
        0.13249607384204865,
        -0.08017681539058685,
        0.12934090197086334,
        -0.08253256231546402,
        -0.09133373200893402,
        -0.07342598587274551,
        0.16927289962768555,
        -0.1268499195575714,
        0.2144661247730255,
        0.18253177404403687,
        0.03328462317585945,
        0.19289429485797882,
        0.17920169234275818,
        0.1737518608570099,
        -0.35139116644859314,
        -0.07663717120885849,
        0.0647529885172844,
        0.1142793521285057,
        0.021219328045845032,
        0.0894794687628746,
        0.20701226592063904,
        0.23428739607334137,
        0.30277392268180847,
        -0.09899096935987473,
        -0.08753270655870438,
        -0.260483056306839,
        0.008454675786197186,
        0.19253495335578918,
        0.024341627955436707,
        -0.01854512095451355,
        -0.14599470794200897,
        -0.08483295142650604,
        -0.10434261709451675,
        0.011894408613443375,
        0.04346136376261711,
        -0.11052396893501282,
        0.008889337070286274,
        -0.052950434386730194,
        0.026860389858484268,
        0.17460505664348602,
        0.08171643316745758,
        -0.07659091800451279,
        0.11334764212369919,
        0.18626563251018524,
        0.18877272307872772,
        -0.004382160026580095,
        -0.06212196871638298,
        0.08185218274593353,
        0.14296142756938934,
        0.06838170439004898,
        0.12383987754583359,
        0.13246950507164001,
        0.03749856725335121,
        0.2128501534461975,
        0.22757413983345032,
        -0.02226722054183483,
        -0.12156669050455093,
        -0.06280304491519928,
        -0.02075553871691227,
        -0.052789997309446335
      ]
    },
    {
      "weight": [
        [
          -0.09369542449712753,
          0.18653322756290436,
          -0.030987150967121124,
          0.061407677829265594,
          0.10603059828281403,
          -0.039792563766241074,
          -0.018652861937880516,
          -0.019302494823932648,
          0.11048298329114914,
          0.12196893244981766,
          -0.1066465973854065,
          -0.022893406450748444,
          0.02056158520281315,
          0.13347762823104858,
          0.06008797883987427,
          0.08814580738544464,
          -0.012547780759632587,
          0.04219560697674751,
          -0.029158031567931175,
          -0.029768196865916252,
          -0.09235897660255432,
          -0.04702363908290863,
          -0.017930781468749046,
          0.11951550096273422,
          -0.10925578325986862,
          -0.026076432317495346,
          0.15610641241073608,
          0.03229717165231705,
          -0.06818745285272598,
          0.19092389941215515,
          0.0071342866867780685,
          0.06432796269655228,
          0.013592767529189587,
          -0.14593935012817383,
          -0.05283336341381073,
          0.05509456619620323,
          0.11316897720098495,
          0.06389170140028,
          0.1616932600736618,
          -0.053738269954919815,
          -0.10221977531909943,
          0.17195892333984375,
          -0.023481786251068115,
          0.09805489331483841,
          -0.06027575954794884,
          0.10184634476900101,
          0.02576284110546112,
          0.0470847561955452,
          0.20274686813354492,
          -0.026308169588446617,
          0.0673995241522789,
          -0.004835087340325117,
          0.00979358609765768,
          0.04384294152259827,
          0.17859061062335968,
          0.1514350324869156,
          0.1088937371969223,
          0.10365729033946991,
          0.07207880169153214,
          -0.06973738223314285,
          0.010855942033231258,
          0.10109657794237137,
          0.17478680610656738,
          0.07270536571741104
        ],
        [
          0.07828149199485779,
          0.2188715636730194,
          -0.04354036599397659,
          -0.11782897263765335,
          0.00046272604959085584,
          -0.05226100608706474,
          0.07301801443099976,
          0.0820663571357727,
          -0.09820469468832016,
          0.035717736929655075,
          0.06522190570831299,
          0.0986805334687233,
          -0.10716302692890167,
          -0.28064724802970886,
          0.030433442443609238,
          0.036041487008333206,
          0.03376828134059906,
          0.2960638701915741,
          0.06395313888788223,
          0.1578836590051651,
          0.03013160452246666,
          -0.06354101747274399,
          -0.007176611572504044,
          -0.15056471526622772,
          -0.15134663879871368,
          0.14622552692890167,
          0.27474433183670044,
          -0.05417129024863243,
          -0.03919374570250511,
          -0.07927392423152924,
          -0.1718733310699463,
          -0.15804070234298706,
          -0.15102927386760712,
          -0.14358651638031006,
          -0.0981050506234169,
          0.06336672604084015,
          -0.04798071086406708,
          -0.15795433521270752,
          -0.035823505371809006,
          0.23797458410263062,
          -0.07313301414251328,
          0.09738457202911377,
          0.010249368846416473,
          0.07332297414541245,
          -0.02166867069900036,
          -0.0064178272150456905,
          -0.01707720011472702,
          -0.11769813299179077,
          0.0566704198718071,
          0.13307544589042664,
          0.00021847046446055174,
          -0.1778182089328766,
          -0.04297616705298424,
          0.019309191033244133,
          0.03646445274353027,
          0.17416134476661682,
          0.06778458505868912,
          -0.0010504293022677302,
          0.1076369658112526,
          0.09793952852487564,
          -0.05579459294676781,
          -0.13957743346691132,
          0.030616458505392075,
          -0.03576875478029251
        ],
        [
          0.15632472932338715,
          0.198530912399292,
          -0.04984806850552559,
          0.11639150232076645,
          0.08233118802309036,
          0.07772715389728546,
          0.07692819833755493,
          0.238913431763649,
          0.06213829293847084,
          0.020170072093605995,
          0.08407390862703323,
          0.12337242066860199,
          0.12898556888103485,
          0.06404193490743637,
          -0.006699880585074425,
          0.1798020452260971,
          0.10114150494337082,
          0.050979118794202805,
          0.15006385743618011,
          0.03996932879090309,
          0.02155783399939537,
          -0.08675297349691391,
          0.0006794151850044727,
          0.18819798529148102,
          -0.05203711614012718,
          0.10122369974851608,
          0.09083665162324905,
          0.02083072066307068,
          0.16417385637760162,
          0.16544140875339508,
          -0.04278580844402313,
          -0.14660431444644928,
          0.07122038304805756,
          -0.06122288480401039,
          0.025745326653122902,
          0.017949115484952927,
          0.19282817840576172,
          0.00919182039797306,
          -0.029739025980234146,
          0.03437264263629913,
          0.03949731960892677,
          -0.025347787886857986,
          -0.05239950865507126,
          0.00019901969062630087,
          -0.006779461167752743,
          0.10338082164525986,
          0.04226383939385414,
          0.1618296056985855,
          0.16223713755607605,
          0.13878698647022247,
          0.06319422274827957,
          0.10274790972471237,
          0.03366223722696304,
          0.19430479407310486,
          -0.00911518931388855,
          0.01875242218375206,
          0.14039795100688934,
          0.1856137365102768,
          0.16998323798179626,
          -0.001925526768900454,
          0.17611829936504364,
          0.21488863229751587,
          0.10395778715610504,
          0.038157764822244644
        ],
        [
          0.11004037410020828,
          -0.08459199219942093,
          0.15530447661876678,
          0.14559274911880493,
          0.04284852743148804,
          0.14324027299880981,
          0.07035346329212189,
          0.06480430066585541,
          0.16785861551761627,
          0.2388557493686676,
          -0.11591792106628418,
          -0.025589188560843468,
          -0.019509200006723404,
          -0.0002948698529507965,
          0.20097963511943817,
          -0.06016381084918976,
          0.13834965229034424,
          -0.13869960606098175,
          0.1802201271057129,
          -0.01302038412541151,
          0.006103618070483208,
          0.17153364419937134,
          0.021259211003780365,
          -0.029049791395664215,
          -0.045724980533123016,
          0.16956624388694763,
          -0.08491925150156021,
          0.08436685055494308,
          -0.024217678233981133,
          -0.01614564098417759,
          0.09375032037496567,
          0.022593310102820396,
          0.031733039766550064,
          0.06691515445709229,
          0.1923856884241104,
          0.2142799347639084,
          0.06106175482273102,
          0.1779920756816864,
          0.14397701621055603,
          0.04991120845079422,
          0.10226839035749435,
          0.002238092478364706,
          0.03047138825058937,
          0.14512920379638672,
          0.13992363214492798,
          0.09529897570610046,
          -0.022024044767022133,
          0.06429664045572281,
          -0.06978113949298859,
          -0.0374482199549675,
          -0.00562849547713995,
          0.08833902329206467,
          0.039420854300260544,
          -0.04835638776421547,
          0.06025512143969536,
          -0.059668704867362976,
          0.03304777666926384,
          0.01927192136645317,
          0.10348957777023315,
          0.017029304057359695,
          -0.012855119071900845,
          0.19859644770622253,
          0.01139310747385025,
          0.06505288183689117
        ],
        [
          0.02537023276090622,
          0.25936126708984375,
          0.026273688301444054,
          -0.021731458604335785,
          0.0871148630976677,
          -0.16294972598552704,
          -0.01654241792857647,
          -0.10952255129814148,
          -0.08138883113861084,
          0.15751796960830688,
          0.14364680647850037,
          -0.165242999792099,
          0.1296621412038803,
          0.12259602546691895,
          -0.00651220977306366,
          0.17515972256660461,
          0.14934609830379486,
          0.14813123643398285,
          -0.02143094129860401,
          0.1837312877178192,
          0.03763129934668541,
          0.06382746249437332,
          -0.07675284892320633,
          0.1438051462173462,
          0.15183554589748383,
          -0.0015967206563800573,
          0.013127187266945839,
          -0.04059266299009323,
          -0.022437550127506256,
          -0.11068707704544067,
          0.04955189302563667,
          -0.11137691885232925,
          -0.026325765997171402,
          0.03154074773192406,
          0.015780404210090637,
          0.1227993443608284,
          0.10383322089910507,
          -0.025971969589591026,
          0.10849383473396301,
          0.22805701196193695,
          -0.055568668991327286,
          0.07351100444793701,
          -0.06951486319303513,
          0.0032239845022559166,
          0.07403673231601715,
          0.1669921875,
          0.1350531131029129,
          -0.038085054606199265,
          0.21417072415351868,
          0.18052178621292114,
          -0.11231117695569992,
          0.08819659054279327,
          0.25807449221611023,
          0.04812861979007721,
          -0.05150730162858963,
          0.21279463171958923,
          -0.036367032676935196,
          -0.029065998271107674,
          0.010841119103133678,
          0.08481976389884949,
          -0.02725546434521675,
          0.1648864895105362,
          0.051972027868032455,
          0.010225998237729073
        ],
        [
          -0.029247459024190903,
          0.0949663296341896,
          0.19777943193912506,
          0.08001458644866943,
          0.07646790146827698,
          0.033462684601545334,
          0.07137713581323624,
          -0.14567077159881592,
          0.0470462441444397,
          0.04404186084866524,
          -0.13298481702804565,
          0.12776584923267365,
          0.1326693445444107,
          0.07762707769870758,
          0.2048259973526001,
          0.06598271429538727,
          -0.0036195639986544847,
          0.23228885233402252,
          -0.03185192868113518,
          0.11450707167387009,
          -0.14428028464317322,
          0.12183868139982224,
          -0.0572318434715271,
          0.1435353308916092,
          0.03061426617205143,
          0.1329248547554016,
          0.05612383410334587,
          -0.05675925314426422,
          -0.1603868305683136,
          -0.1261664628982544,
          -0.0020866976119577885,
          0.12920336425304413,
          0.07571647316217422,
          0.06619089841842651,
          0.17140798270702362,
          0.005521258804947138,
          0.09115402400493622,
          0.11613251268863678,
          -0.0901167020201683,
          0.023107467219233513,
          0.10016150772571564,
          0.13584643602371216,
          -0.06745683401823044,
          0.1401222050189972,
          0.056963562965393066,
          0.13597680628299713,
          0.06464677304029465,
          0.09759890288114548,
          0.16079679131507874,
          0.12206033617258072,
          -0.06679759174585342,
          0.12505435943603516,
          -0.014400077983736992,
          0.1290387511253357,
          -0.007774442434310913,
          0.050613339990377426,
          0.04658406600356102,
          0.04640432447195053,
          0.08554578572511673,
          -0.08684079349040985,
          -0.11546055227518082,
          0.18629921972751617,
          0.014108606614172459,
          -0.06864001601934433
        ],
        [
          -0.11017003655433655,
          -0.030475247651338577,
          0.043474674224853516,
          0.03568292036652565,
          0.1676008552312851,
          0.11005325615406036,
          -0.052770644426345825,
          -0.029396651312708855,
          0.10590650141239166,
          0.016309406608343124,
          0.05597123131155968,
          -0.17903654277324677,
          0.12668323516845703,
          0.1211959719657898,
          0.054481878876686096,
          -0.032246045768260956,
          0.013460887596011162,
          -0.027493108063936234,
          -0.15023763477802277,
          0.08701279014348984,
          0.23495110869407654,
          0.06829255819320679,
          -0.03890468552708626,
          0.14673180878162384,
          0.12630029022693634,
          0.003116271924227476,
          -0.04517561197280884,
          0.04922817274928093,
          -0.11316275596618652,
          0.07839455455541611,
          0.0569644458591938,
          0.0407571941614151,
          0.021699130535125732,
          0.042844947427511215,
          -0.049533940851688385,
          0.08524914085865021,
          0.11263278126716614,
          -0.05285636708140373,
          0.13482819497585297,
          0.06538531929254532,
          0.03016643039882183,
          0.1434393972158432,
          -0.0681164413690567,
          -0.16334949433803558,
          -0.060579296201467514,
          0.031232081353664398,
          0.03356315568089485,
          0.08944205194711685,
          -0.08804919570684433,
          0.11739319562911987,
          0.09662062674760818,
          -0.10005611181259155,
          -0.1369330883026123,
          -0.14552783966064453,
          -0.08845613896846771,
          -0.08352450281381607,
          0.1429174840450287,
          0.045704323798418045,
          -0.012867829762399197,
          -0.11304375529289246,
          0.012268409132957458,
          -0.1311362087726593,
          -0.19633880257606506,
          0.039085302501916885
        ],
        [
          -0.14108732342720032,
          -0.09545937925577164,
          0.09182698279619217,
          -0.1154082641005516,
          -0.06941857188940048,
          0.12285634130239487,
          -0.11669256538152695,
          -0.017528632655739784,
          0.06851164996623993,
          -0.002785807242617011,
          0.07968344539403915,
          0.009779867716133595,
          -0.06662531197071075,
          -0.09769551455974579,
          -0.14363348484039307,
          -0.03453745320439339,
          -0.0680699348449707,
          -0.0279051773250103,
          -0.0104050412774086,
          -0.07810872793197632,
          0.08777938783168793,
          -0.1536293923854828,
          0.004028376191854477,
          -0.16773256659507751,
          0.034968193620443344,
          0.03743884712457657,
          -0.07966230064630508,
          -0.08297242969274521,
          0.0826571136713028,
          -0.19561457633972168,
          0.03500915691256523,
          -0.06627161800861359,
          -0.0641242191195488,
          -0.038775455206632614,
          -0.21812587976455688,
          -0.09471972286701202,
          -0.06973398476839066,
          -0.06449351459741592,
          0.10798131674528122,
          -0.0924188643693924,
          0.059447936713695526,
          -0.03480900824069977,
          -0.09310103952884674,
          -0.0625300332903862,
          -0.14392052590847015,
          -0.10921412706375122,
          -0.06103472039103508,
          -0.031135210767388344,
          -0.11901866644620895,
          -0.1617671698331833,
          -0.0850534737110138,
          -0.1395433098077774,
          -0.18499723076820374,
          -0.16476058959960938,
          -0.05199189484119415,
          -0.07703462243080139,
          0.03965509310364723,
          -0.0448165088891983,
          -0.14676496386528015,
          -0.084605872631073,
          -0.03238090127706528,
          -0.12296397238969803,
          -0.1747424304485321,
          -0.08530614525079727
        ],
        [
          0.015596767887473106,
          0.23513482511043549,
          -0.07559625804424286,
          -0.07422074675559998,
          -0.14456826448440552,
          -0.24146872758865356,
          0.08483114838600159,
          0.0921979621052742,
          -0.03577664867043495,
          -0.06419208645820618,
          -0.09871343523263931,
          -0.05232606828212738,
          0.12401038408279419,
          -0.12696629762649536,
          0.016154125332832336,
          0.05643056705594063,
          -0.03197268769145012,
          0.13427549600601196,
          0.17267382144927979,
          0.12172697484493256,
          0.00936181005090475,
          -0.11224672198295593,
          -0.20945210754871368,
          -0.05181286111474037,
          -0.16384528577327728,
          0.01382376253604889,
          0.1016698032617569,
          -0.09791570901870728,
          -0.0891118273139,
          0.25687074661254883,
          0.03981335833668709,
          -0.042714428156614304,
          -0.08143778890371323,
          -0.0178555715829134,
          0.09932772815227509,
          0.050895147025585175,
          0.11204727739095688,
          -0.04496124014258385,
          0.059650421142578125,
          0.014780272729694843,
          -0.0028433396946638823,
          0.060640089213848114,
          -0.1416006088256836,
          0.1390061229467392,
          0.0701141282916069,
          0.19025054574012756,
          0.05592333897948265,
          0.09182076156139374,
          0.1041349545121193,
          0.03328707069158554,
          0.014836231246590614,
          -0.07046816498041153,
          0.1874854415655136,
          0.1596287339925766,
          -0.04937232285737991,
          0.04803750291466713,
          0.14207176864147186,
          0.15867388248443604,
          0.04795283451676369,
          -0.06661117076873779,
          -0.01235627755522728,
          0.12556785345077515,
          0.178288534283638,
          -0.20333608984947205
        ],
        [
          -0.16894912719726562,
          -0.015000523068010807,
          0.17699860036373138,
          0.03918732702732086,
          0.2503524124622345,
          0.1058787852525711,
          0.16130971908569336,
          -0.2145683616399765,
          0.13385407626628876,
          0.055309511721134186,
          -0.0007264682790264487,
          -0.0020277388393878937,
          0.0797390267252922,
          -0.16785110533237457,
          0.12790526449680328,
          0.12517037987709045,
          0.010690787807106972,
          -0.11604349315166473,
          -0.053999315947294235,
          -0.10639389604330063,
          0.024219024926424026,
          0.12405752390623093,
          0.10839097201824188,
          0.08936674892902374,
          -0.06252480298280716,
          0.0097941430285573,
          0.1111062690615654,
          0.0036142996978014708,
          -0.11388476192951202,
          0.06793741136789322,
          0.05157480761408806,
          -0.09279956668615341,
          0.2257503718137741,
          0.19962230324745178,
          -0.004413766786456108,
          0.1702021062374115,
          -0.029172850772738457,
          0.13214339315891266,
          0.05941096320748329,
          0.0312087070196867,
          -0.06024271994829178,
          0.0883968397974968,
          0.10925810784101486,
          -0.11880101263523102,
          -0.007352230604737997,
          0.04677407816052437,
          -0.035365909337997437,
          0.17889170348644257,
          0.08380771428346634,
          0.18133054673671722,
          0.1577700972557068,
          -0.14861784875392914,
          -0.21589122712612152,
          -0.17978079617023468,
          0.030540157109498978,
          0.04464513063430786,
          0.12537764012813568,
          0.03688093647360802,
          -0.03292088210582733,
          -0.10516402125358582,
          -0.1733548939228058,
          -0.05144568905234337,
          -0.15288783609867096,
          0.22121532261371613
        ],
        [
          0.14616094529628754,
          0.06929135322570801,
          0.003117277752608061,
          0.13566690683364868,
          -0.10470452904701233,
          -0.05120823159813881,
          0.09157437086105347,
          0.13936060667037964,
          0.0826299637556076,
          0.22036439180374146,
          0.028371449559926987,
          0.07686640322208405,
          0.14329834282398224,
          -0.1279202252626419,
          0.19148243963718414,
          -0.1272611916065216,
          0.03828979656100273,
          0.17414839565753937,
          0.13807469606399536,
          -0.015315160155296326,
          -0.04569465294480324,
          0.15157893300056458,
          -0.07297151535749435,
          0.14983972907066345,
          -0.08289822936058044,
          0.04450739920139313,
          -0.06564755737781525,
          0.07614243775606155,
          0.056313443928956985,
          0.016019543632864952,
          0.03805643320083618,
          -0.08456243574619293,
          -1.6255187802016735e-05,
          -0.14666779339313507,
          0.1573844999074936,
          0.17018426954746246,
          0.22874175012111664,
          0.1702476292848587,
          -0.07842573523521423,
          0.1701458841562271,
          0.0934913381934166,
          0.10662704706192017,
          0.14185206592082977,
          0.15522818267345428,
          0.15520599484443665,
          0.06840597838163376,
          -0.07359645515680313,
          0.06377961486577988,
          -0.010730214416980743,
          0.16191032528877258,
          0.07052312791347504,
          0.05442589521408081,
          0.17339468002319336,
          0.05820246785879135,
          -0.014211702160537243,
          0.15979410707950592,
          0.15615160763263702,
          0.13007254898548126,
          0.13799014687538147,
          0.020754484459757805,
          0.12242168933153152,
          0.21344736218452454,
          0.020090239122509956,
          -0.03735560178756714
        ],
        [
          0.0024717042688280344,
          0.23308931291103363,
          -0.14105582237243652,
          0.09734950959682465,
          -0.13091051578521729,
          -0.13900098204612732,
          -0.016521917656064034,
          0.01666424423456192,
          0.04713268205523491,
          -0.10940828919410706,
          0.12647320330142975,
          -0.01701246201992035,
          0.024058831855654716,
          0.06784841418266296,
          -0.12019116431474686,
          -0.14303547143936157,
          -0.06563504785299301,
          0.1433495730161667,
          0.019446080550551414,
          -0.023414650931954384,
          0.10330761969089508,
          -0.03166815638542175,
          0.04189005494117737,
          -0.056722961366176605,
          0.13222536444664001,
          -0.020096836611628532,
          0.18717648088932037,
          -0.2726379334926605,
          0.12786391377449036,
          0.004247856326401234,
          -0.12006749212741852,
          0.19824180006980896,
          -0.10227275639772415,
          -0.20218190550804138,
          -0.16060331463813782,
          0.15944774448871613,
          0.07825639098882675,
          0.014456687495112419,
          0.014684026129543781,
          -0.08006393164396286,
          0.010078399442136288,
          -0.07287194579839706,
          -0.0958084836602211,
          0.011556359939277172,
          -0.019704042002558708,
          -0.014252827502787113,
          0.025261826813220978,
          -0.04264046996831894,
          0.1791762262582779,
          0.09642696380615234,
          0.09368173032999039,
          -0.24393032491207123,
          0.0902843102812767,
          0.18167796730995178,
          -0.028786834329366684,
          0.05807826668024063,
          -0.13520483672618866,
          0.10829398781061172,
          0.061625875532627106,
          0.04698697850108147,
          0.08574240654706955,
          -0.06535765528678894,
          -0.03312024474143982,
          0.007320627104490995
        ],
        [
          -0.042939767241477966,
          0.08896247297525406,
          -0.06342624872922897,
          0.1325976401567459,
          -0.04113291949033737,
          -0.18091270327568054,
          -0.09545379132032394,
          0.01566123589873314,
          0.10900730639696121,
          -0.003618581686168909,
          0.06104384362697601,
          -0.03802058473229408,
          0.15462782979011536,
          0.1515192836523056,
          0.06346878409385681,
          0.13460345566272736,
          0.046955034136772156,
          0.12170010805130005,
          -0.13324791193008423,
          0.17006248235702515,
          0.09207117557525635,
          0.04736537113785744,
          0.014104939065873623,
          0.05975739657878876,
          0.10850803554058075,
          0.0739767923951149,
          0.15691721439361572,
          0.06169174239039421,
          -0.021377060562372208,
          0.13831226527690887,
          -0.04389283061027527,
          0.020029639825224876,
          -0.01802421733736992,
          -0.11258430778980255,
          -0.003257851116359234,
          0.03691834956407547,
          0.13531775772571564,
          0.05013136938214302,
          0.0704130157828331,
          -0.19135546684265137,
          0.0874980017542839,
          0.1666056513786316,
          0.07710932940244675,
          -0.042370788753032684,
          0.036032963544130325,
          0.048959359526634216,
          -0.004291296470910311,
          0.07931313663721085,
          0.04772606119513512,
          -0.03595150262117386,
          -0.006964047439396381,
          0.0690092220902443,
          0.13802888989448547,
          0.0791955441236496,
          0.07008835673332214,
          0.14740978181362152,
          0.086525559425354,
          -0.01771717704832554,
          0.0439118854701519,
          -0.026526520028710365,
          -0.10447441041469574,
          -0.05508542060852051,
          0.08970563113689423,
          -0.07803859561681747
        ],
        [
          -0.15437057614326477,
          0.027780018746852875,
          -0.0678257867693901,
          -0.08764315396547318,
          -0.13568438589572906,
          -0.0192213486880064,
          0.06472350656986237,
          0.08865886181592941,
          -0.172936350107193,
          -0.12502266466617584,
          0.06626929342746735,
          0.03218222036957741,
          0.06467092037200928,
          -0.15575583279132843,
          -0.17726364731788635,
          -0.09011116623878479,
          0.011675175279378891,
          -0.18275317549705505,
          -0.02967827022075653,
          0.008270527236163616,
          0.02990882843732834,
          -0.07710964232683182,
          0.0340743288397789,
          -0.018154311925172806,
          0.04007267579436302,
          -0.13474588096141815,
          0.022156933322548866,
          -0.04546619579195976,
          -0.10760151594877243,
          -0.08858191221952438,
          -0.13538239896297455,
          0.024782957509160042,
          -0.06456274539232254,
          -0.14697133004665375,
          -0.050236787647008896,
          -0.06962955743074417,
          -0.08325721323490143,
          -0.1611427217721939,
          -0.08321339637041092,
          -0.10924563556909561,
          0.03918740525841713,
          -0.07629982382059097,
          -0.008434517309069633,
          -0.13405093550682068,
          -0.14708565175533295,
          -0.11045953631401062,
          -0.061035338789224625,
          -0.15705779194831848,
          0.04295355826616287,
          -0.11952068656682968,
          -0.006343310233205557,
          0.08173996955156326,
          -0.10384141653776169,
          0.04415212571620941,
          -0.16765421628952026,
          -0.04442545399069786,
          -0.17639070749282837,
          -0.08989899605512619,
          0.06901499629020691,
          0.04029930755496025,
          -0.0220145583152771,
          -0.1350594460964203,
          -0.030007435008883476,
          -0.15192843973636627
        ],
        [
          0.1562407910823822,
          -0.03668854385614395,
          0.03994263336062431,
          0.1730073094367981,
          -0.1355431228876114,
          0.05756058543920517,
          0.08253302425146103,
          0.05298129469156265,
          0.07177715748548508,
          0.032066747546195984,
          -0.05459290370345116,
          0.23860275745391846,
          0.12736797332763672,
          -0.13174651563167572,
          0.10683955997228622,
          -0.09413012862205505,
          0.18054908514022827,
          0.11160401999950409,
          0.09020401537418365,
          0.1776580661535263,
          0.026268253102898598,
          0.07695166766643524,
          -0.07257116585969925,
          0.06261758506298065,
          -0.09421242028474808,
          0.025578679516911507,
          -0.012256200425326824,
          -0.01597948558628559,
          0.1345321536064148,
          -0.09921714663505554,
          -0.016515644267201424,
          -0.09683005511760712,
          0.051576029509305954,
          0.026868905872106552,
          0.14537183940410614,
          0.04852304607629776,
          0.13829287886619568,
          -0.03749367594718933,
          -0.06163565069437027,
          0.09762025624513626,
          -0.06208711117506027,
          0.08623300492763519,
          0.21566647291183472,
          -0.020648745819926262,
          -0.03354420140385628,
          0.133097305893898,
          -0.04691154509782791,
          0.09471427649259567,
          0.08796991407871246,
          -0.055338822305202484,
          0.051168713718652725,
          0.09282282739877701,
          -0.02465050481259823,
          0.16925518214702606,
          0.10912386327981949,
          0.13967932760715485,
          0.06552256643772125,
          -0.07873106002807617,
          0.053414009511470795,
          0.03526575490832329,
          0.0429464615881443,
          0.1233765035867691,
          0.15503160655498505,
          0.11368410289287567
        ],
        [
          0.1091492623090744,
          0.0014354758895933628,
          -0.050632260739803314,
          0.02335619367659092,
          0.09311840683221817,
          0.03407182916998863,
          -0.07467766851186752,
          0.12355215847492218,
          0.04016895219683647,
          -0.12526832520961761,
          0.17827178537845612,
          0.20148733258247375,
          0.04193020612001419,
          0.2268795669078827,
          -0.15072141587734222,
          0.1136358380317688,
          -0.08186302334070206,
          -0.01688561961054802,
          -0.21594995260238647,
          -0.019072381779551506,
          0.07761720567941666,
          0.16735653579235077,
          0.08727914839982986,
          0.16557396948337555,
          0.16326341032981873,
          0.07504218071699142,
          0.08082642406225204,
          -0.029513519257307053,
          0.105451300740242,
          0.004958616569638252,
          -0.04853977635502815,
          0.17468583583831787,
          -0.00829720962792635,
          -0.04286480322480202,
          -0.010588050819933414,
          -0.06719034910202026,
          -0.015621212311089039,
          -0.046634674072265625,
          0.197090283036232,
          0.0202191025018692,
          0.16863393783569336,
          0.12547136843204498,
          0.19246280193328857,
          0.10085491836071014,
          -0.11068939417600632,
          0.011414675042033195,
          0.1390211582183838,
          -0.0027527487836778164,
          0.11960699409246445,
          -0.09293393790721893,
          0.20177991688251495,
          -0.06501578539609909,
          -0.09825340658426285,
          0.004794865846633911,
          0.0008941193809732795,
          0.1465120017528534,
          -0.01709323562681675,
          0.026879403740167618,
          -0.0059908009134233,
          0.043384917080402374,
          0.17579339444637299,
          -0.1539928913116455,
          -0.003684180323034525,
          -0.013631065376102924
        ],
        [
          -0.21319185197353363,
          0.06821955740451813,
          0.10326165705919266,
          0.06546217948198318,
          -0.018216919153928757,
          -0.04082147404551506,
          -0.050843190401792526,
          -0.09782488644123077,
          0.05761145055294037,
          -0.008387845940887928,
          0.12559567391872406,
          -0.25704383850097656,
          0.05007316917181015,
          0.18487650156021118,
          -0.07154204696416855,
          0.09010350704193115,
          -0.08289622515439987,
          0.0948042944073677,
          -0.10574813187122345,
          0.0639939233660698,
          0.04970235005021095,
          -0.08506950736045837,
          0.05293997749686241,
          0.1089414432644844,
          0.13628025352954865,
          0.005314276088029146,
          0.08957978338003159,
          -0.09992874413728714,
          -0.12551549077033997,
          -0.11115050315856934,
          0.16331718862056732,
          0.21123170852661133,
          0.0010092428419739008,
          -0.00592820206657052,
          -0.023270413279533386,
          -0.003161291591823101,
          -0.08850252628326416,
          -0.19882185757160187,
          0.11204515397548676,
          -0.11076106131076813,
          0.10574069619178772,
          0.2245510369539261,
          -0.17845577001571655,
          -0.059023622423410416,
          -0.1411585807800293,
          -0.002375347539782524,
          0.14702771604061127,
          0.04560951143503189,
          -0.014307755045592785,
          -0.13679464161396027,
          0.20512069761753082,
          -0.25974777340888977,
          0.11744178831577301,
          -0.12943902611732483,
          -0.045575037598609924,
          -0.002747941529378295,
          0.08122755587100983,
          -0.06634387373924255,
          -0.030391937121748924,
          0.07274174690246582,
          0.0915285125374794,
          -0.181478351354599,
          -0.040696945041418076,
          0.05380502715706825
        ],
        [
          -0.2671410143375397,
          0.11000557243824005,
          0.06437622010707855,
          -0.048081014305353165,
          0.10064160823822021,
          0.18529601395130157,
          0.06676625460386276,
          -0.04326039180159569,
          -0.04090973362326622,
          -0.010706983506679535,
          0.14500683546066284,
          -0.21640725433826447,
          0.17144672572612762,
          0.02520563453435898,
          0.16820624470710754,
          0.04237479344010353,
          -0.05744079872965813,
          -0.08125659078359604,
          0.03716539219021797,
          0.08960752189159393,
          0.13206622004508972,
          0.012998392805457115,
          0.15583355724811554,
          -0.006131947506219149,
          -0.03339239954948425,
          0.21710453927516937,
          -0.05533280223608017,
          -0.03853067755699158,
          -0.21283592283725739,
          -0.11961869895458221,
          0.16809439659118652,
          0.0908457487821579,
          -0.04445655271410942,
          -0.08047295361757278,
          -0.007091518957167864,
          0.05134931579232216,
          0.09931956231594086,
          0.04384630173444748,
          0.004244834650307894,
          -0.028158001601696014,
          -0.03516676649451256,
          -0.10319057106971741,
          -0.08946774899959564,
          -0.28760626912117004,
          -0.08992147445678711,
          -0.04751719906926155,
          -0.005511168390512466,
          0.067047119140625,
          -0.17911042273044586,
          0.13220427930355072,
          0.1356593519449234,
          -0.08245442062616348,
          -0.0005435957573354244,
          -0.1799507886171341,
          -0.13791389763355255,
          -0.06074696406722069,
          0.05594399943947792,
          0.028591876849532127,
          -0.008668347261846066,
          -0.047943614423274994,
          -0.06284064054489136,
          -0.338823527097702,
          0.11668666452169418,
          -0.03552268072962761
        ],
        [
          -0.13486669957637787,
          -0.03511233255267143,
          -0.06377161294221878,
          -0.12161512672901154,
          -0.11788085848093033,
          0.09867239743471146,
          -0.15468260645866394,
          -0.05625844746828079,
          0.06784147024154663,
          0.0504147931933403,
          0.0727221816778183,
          -0.016298653557896614,
          -0.15212076902389526,
          -0.12942947447299957,
          -0.025438839569687843,
          -0.09052236378192902,
          -0.014933770522475243,
          -0.04253169149160385,
          -0.0783853679895401,
          -0.10329856723546982,
          -0.03904798626899719,
          -0.14143958687782288,
          -0.10067977011203766,
          0.023595450446009636,
          -0.05940058082342148,
          0.032881394028663635,
          -0.07795760035514832,
          0.06408681720495224,
          -0.06040290743112564,
          -0.0190897099673748,
          -0.10267418622970581,
          0.017422182485461235,
          -0.027789153158664703,
          -0.014898663386702538,
          0.03614019975066185,
          -0.05459894612431526,
          -0.1528010070323944,
          -0.0784575343132019,
          -0.06493565440177917,
          0.08958001434803009,
          -0.028457986190915108,
          0.04885132983326912,
          0.040402576327323914,
          -0.0655621737241745,
          -0.0628952607512474,
          0.0731479749083519,
          0.0838966965675354,
          -0.04075436294078827,
          0.09065447002649307,
          -0.011209446005523205,
          0.08238324522972107,
          -0.05767253041267395,
          0.034561969339847565,
          0.03293576464056969,
          0.05284160375595093,
          0.028433073312044144,
          0.04452172666788101,
          -0.048452068120241165,
          -0.07222796976566315,
          -0.10478192567825317,
          -0.052001841366291046,
          -0.030442601069808006,
          -0.14536207914352417,
          0.0570862703025341
        ],
        [
          0.15359391272068024,
          -0.03997363522648811,
          0.28710514307022095,
          -0.16220316290855408,
          -0.14015929400920868,
          0.18253520131111145,
          0.09991863369941711,
          0.10898412764072418,
          -0.020261019468307495,
          0.040316224098205566,
          0.08341694623231888,
          0.02061360888183117,
          0.038516778498888016,
          -0.05727106332778931,
          0.34912505745887756,
          -0.15647774934768677,
          0.17292745411396027,
          -0.10554876923561096,
          0.23995259404182434,
          -0.10636655241250992,
          0.08600380271673203,
          0.04807963967323303,
          0.11752285808324814,
          -0.08126071840524673,
          -0.09985800832509995,
          -0.16023650765419006,
          -0.18857643008232117,
          -0.061373334378004074,
          0.07354855537414551,
          -0.01163160428404808,
          0.03842944651842117,
          -0.12348265945911407,
          -0.07098082453012466,
          -0.11269117891788483,
          0.0654870867729187,
          0.16057097911834717,
          -0.012857620604336262,
          0.012811076827347279,
          -0.14742814004421234,
          0.16526871919631958,
          -0.03739782050251961,
          0.08057186007499695,
          0.07307311147451401,
          0.04987678304314613,
          0.16894128918647766,
          -0.01204221136868,
          -0.012483506463468075,
          0.14540056884288788,
          -0.12809425592422485,
          -0.033317871391773224,
          0.014866646379232407,
          0.10412052273750305,
          -0.15735730528831482,
          0.039927124977111816,
          0.04153928533196449,
          -0.028125332668423653,
          0.18024985492229462,
          -0.11964080482721329,
          0.019558940082788467,
          -0.16126607358455658,
          -0.13404367864131927,
          0.189220130443573,
          0.14856281876564026,
          -0.053096938878297806
        ],
        [
          0.04328440874814987,
          -0.0005951705388724804,
          0.22047412395477295,
          -0.2534416913986206,
          -0.0971844270825386,
          0.01578233577311039,
          -0.14021605253219604,
          -0.2357495278120041,
          -0.12236832082271576,
          0.15840184688568115,
          -0.1000809520483017,
          -0.10818373411893845,
          -0.036284442991018295,
          -0.005371238570660353,
          0.11660555005073547,
          -0.25505340099334717,
          0.06570455431938171,
          -0.08069230616092682,
          -0.13635040819644928,
          -0.020477894693613052,
          -0.19120201468467712,
          -0.07665666192770004,
          -0.020076937973499298,
          -0.00427803210914135,
          0.012877055443823338,
          -0.12631629407405853,
          -0.181402325630188,
          0.05575909465551376,
          -0.1881801337003708,
          -0.2011936455965042,
          0.011757701635360718,
          -0.09875526279211044,
          0.020884299650788307,
          0.14217674732208252,
          -0.06788193434476852,
          0.03728925809264183,
          0.018733907490968704,
          -0.04083478823304176,
          -0.17521318793296814,
          0.03835031017661095,
          -0.08292752504348755,
          0.1044052317738533,
          -0.023505019024014473,
          0.016195490956306458,
          -0.06097489222884178,
          -0.08237301558256149,
          -0.10549627244472504,
          0.037815555930137634,
          -0.22099517285823822,
          -0.04189389944076538,
          0.09305129945278168,
          -0.06945062428712845,
          -0.06947976350784302,
          -0.12423092871904373,
          0.07676535099744797,
          -0.07296441495418549,
          -0.05618962645530701,
          -0.1805213987827301,
          -0.15940280258655548,
          0.02631556987762451,
          -0.17057806253433228,
          -0.10574860125780106,
          -0.15552152693271637,
          -0.08786904066801071
        ],
        [
          -0.022733693942427635,
          0.15365004539489746,
          -0.04511163383722305,
          -0.1361905336380005,
          0.052185557782649994,
          -0.11196190118789673,
          -0.014055346138775349,
          -0.016491539776325226,
          -0.023348547518253326,
          -0.20569533109664917,
          0.08554726839065552,
          -0.12673301994800568,
          -0.035172879695892334,
          0.06622977554798126,
          -0.2392965853214264,
          0.16074131429195404,
          -0.06716636568307877,
          0.13828065991401672,
          -0.2888514995574951,
          -0.013080361299216747,
          0.16670724749565125,
          -0.09373611956834793,
          0.19340236485004425,
          0.005957847461104393,
          0.10303234308958054,
          0.18264244496822357,
          0.09817702323198318,
          -0.04822473227977753,
          -0.0005864766426384449,
          -0.030073193833231926,
          0.14491356909275055,
          0.09391641616821289,
          -0.1638372242450714,
          -0.021652307361364365,
          -0.3148689866065979,
          0.09451285749673843,
          0.07474853098392487,
          -0.12910205125808716,
          0.2367706000804901,
          0.010166378691792488,
          0.12865351140499115,
          0.13924935460090637,
          -0.04057944566011429,
          -0.017309434711933136,
          -0.1603909134864807,
          0.005500181578099728,
          0.22552844882011414,
          0.06352685391902924,
          0.1504058837890625,
          -0.012767229229211807,
          0.16929835081100464,
          0.010182456113398075,
          0.1884160339832306,
          0.128127321600914,
          0.055317167192697525,
          0.02662200666964054,
          -0.0013143513351678848,
          0.07496783882379532,
          0.17398324608802795,
          0.08041959255933762,
          0.11956048756837845,
          -0.21577580273151398,
          -0.04152383282780647,
          0.048212163150310516
        ],
        [
          0.1614057719707489,
          0.19384917616844177,
          -0.0742870569229126,
          -0.02462734840810299,
          0.05356116220355034,
          -0.09407295286655426,
          0.15800268948078156,
          -0.09575869888067245,
          0.0013148896396160126,
          0.0008115570526570082,
          0.024947775527834892,
          0.12294681370258331,
          0.007722285110503435,
          0.12299240380525589,
          0.21503393352031708,
          0.09828858822584152,
          0.05611829087138176,
          0.00799604132771492,
          0.0689428299665451,
          -0.09406338632106781,
          0.016397802159190178,
          0.01187013741582632,
          0.17042434215545654,
          0.1377481073141098,
          0.04934147745370865,
          0.1821454018354416,
          -0.06104567274451256,
          0.09010576456785202,
          -0.13128945231437683,
          0.20045411586761475,
          0.166394904255867,
          -0.039538171142339706,
          0.15056273341178894,
          0.019506564363837242,
          0.17358633875846863,
          0.04676317423582077,
          0.004156287759542465,
          0.07474637031555176,
          -0.12127935141324997,
          -0.03477342799305916,
          -0.14840587973594666,
          -0.06139138340950012,
          0.03698097914457321,
          -0.04750680550932884,
          0.21148377656936646,
          -0.02157403901219368,
          0.11289774626493454,
          -0.01272504311054945,
          0.08309110254049301,
          0.17555688321590424,
          -0.03886396065354347,
          0.050016578286886215,
          0.18974418938159943,
          0.00041477425838820636,
          -0.05897947773337364,
          0.16602540016174316,
          0.14978989958763123,
          0.12060628831386566,
          -0.010492614470422268,
          -0.057414256036281586,
          -0.0491439588367939,
          0.2591487765312195,
          0.014108189381659031,
          -0.024083806201815605
        ],
        [
          -0.14085935056209564,
          0.057274043560028076,
          0.06817252933979034,
          0.08685222268104553,
          0.1545364111661911,
          0.14537875354290009,
          0.0006650089635513723,
          -0.21854954957962036,
          -0.012359542772173882,
          0.06550858914852142,
          0.035582609474658966,
          -0.10349445044994354,
          -0.10409029573202133,
          -0.18959663808345795,
          0.04729924350976944,
          -0.13384942710399628,
          -0.1310793161392212,
          -0.01453149039298296,
          -0.011318054981529713,
          -0.15722934901714325,
          -0.012818844988942146,
          0.07841016352176666,
          0.059624671936035156,
          -0.0040097301825881,
          0.09786558896303177,
          0.17539706826210022,
          -0.05394372716546059,
          0.09081223607063293,
          -0.16792406141757965,
          -0.0028870091773569584,
          -0.03398485109210014,
          0.032646648585796356,
          0.26423385739326477,
          0.21559971570968628,
          -0.10195116698741913,
          0.06535020470619202,
          0.18970395624637604,
          0.07793058454990387,
          0.009843477047979832,
